7660 100
3 -0.17666976 -0.30555001 0.11597417 0.0067447447 0.30479828 0.31793827 0.18958794 0.019791143 0.0035195211 0.10639607 0.033977337 -0.16065493 -0.33509064 -0.31440341 0.064734451 0.015068671 -0.29794598 -0.11530435 0.097651571 -0.0334705 -0.081299238 0.15456964 0.16626464 0.32829472 0.070260711 0.042929396 0.031101083 0.037073497 0.0024914776 0.072252139 0.13182236 0.13483047 -0.0021282404 -0.11467309 -0.054099023 0.046973985 0.20626052 0.24511875 0.0013420326 0.19382933 -0.015430068 0.25882545 0.22876431 0.2147994 -0.017558809 0.24916166 -0.019257197 -0.05486159 0.034969285 0.27089012 -0.056915648 0.23349932 -0.043495845 0.29917872 -0.13608795 -0.15306228 0.038432453 -0.057868347 -0.40720299 0.16062289 0.25623474 -0.032935586 -0.046477899 0.16653168 0.10601019 0.016814886 -0.22524856 -0.072469391 0.30985096 -0.049733993 -0.076507859 0.080152281 0.29936475 -0.17232722 0.15073234 -0.37432083 0.24983738 0.11527786 -0.025336137 -0.26347092 0.20067188 0.0032298914 0.13169384 -0.066615686 -0.089761019 0.35179403 -0.13254985 -0.11632869 0.10806977 -0.030388443 0.18138142 -0.065927148 -0.33149326 0.17308395 -0.098577045 0.35527858 -0.20392446 0.0013033102 0.091982894 -0.054495282
552 -0.79494286 -0.33688426 0.12045613 -0.39327753 0.4921833 -0.23130006 0.7599774 0.4471634 0.18129641 -0.18817019 -0.069658861 0.5182879 0.16470382 -0.47948304 -0.017104317 -0.81255788 0.028616363 0.37255344 0.22327608 -0.13808917 0.80445552 -0.12470521 0.62983805 0.93722069 0.57101732 -1.0793542 -0.43078083 0.46807751 0.37742788 -0.039208099 0.58412683 0.14724888 -0.033781637 -0.11564828 -0.34916249 -0.092550159 0.17238833 0.31126374 -0.12280359 -0.070917331 -0.088532306 0.72117579 0.65543741 0.16607969 0.097485356 0.64182085 0.66931337 0.51405936 -0.28105405 0.5858351 0.22334041 0.34657845 0.25709093 0.43630978 -0.81398314 0.37542409 0.66393876 0.36343911 -0.062125586 0.0045821583 0.29634723 0.40585917 0.1433329 0.53349364 -0.55864745 0.0029300081 -0.95276684 0.24688835 -0.032732449 -0.16835247 0.58680254 -0.084436543 -0.33879557 -0.21563891 -0.27888039 -0.37714502 0.081798688 0.02159716 -0.16265519 0.30827221 0.10800205 -0.41370505 -0.33789879 0.063264161 -0.13996959 -0.16173133 0.38563296 -0.51825923 0.67557055 -0.35008305 1.1269697 -0.24937306 -0.3177022 0.15192835 -0.58324456 0.89454025 -0.17504857 -0.22851346 0.028680753 -0.2508162
647 0.092427202 -0.49683222 0.34424001 0.12311691 0.22792959 0.063723318 0.90015608 0.65625674 -0.48612615 -0.13007201 0.53297728 -0.30892217 0.093823403 -0.36421359 0.74159497 0.12271301 0.38222107 -0.059528563 0.48985782 -0.41874582 0.53112227 -0.42553583 0.11085289 0.76008582 0.068473041 -0.72850364 0.30369148 0.0081376275 -0.15533414 0.17269659 0.76212436 -0.18942896 -0.73594683 -0.17759311 -0.058308031 -0.23602152 0.20683493 0.09451586 0.35977742 0.74033505 -0.081642181 0.4997898 0.15867986 0.18584956 -0.66658509 0.52179778 0.73221099 0.19317654 0.097712755 -0.11646268 -0.084741518 0.12809376 0.66144425 0.10910153 -0.30783698 -1.2122171 0.2123709 0.56381398 -0.56844217 0.60098886 0.98804343 -0.1610446 0.41811395 -0.26603901 -0.60023582 0.1371416 -0.45424742 0.046007235 0.021409336 -0.099760547 -0.038747683 0.21163096 0.37805459 0.075420111 -0.34302264 -0.28127763 0.95302147 -0.41886076 -0.38062775 -0.041123964 0.22366408 0.17618503 0.50907606 -0.71349764 -0.066960625 0.22235702 -0.16324051 -0.025990447 0.040712044 -0.42048797 0.85709345 -0.87662154 0.33671531 0.21569178 0.0090544969 -0.027459543 0.20914502 -0.40733114 -0.011386142 -0.1207742
1571 -0.83688539 -0.48136038 0.31943297 -0.29042244 0.38027766 0.71121228 0.30566636 0.87023485 0.010331566 0.34080619 0.56689078 0.40073493 -0.12542233 0.19288425 -0.023393156 -0.54029727 0.78164679 -0.044473026 0.19965655 -0.83578002 0.39602274 -0.26223084 1.0636142 0.70414084 0.55252457 -0.12621668 -0.60145438 0.21481661 -0.68775332 -0.05228965 0.2486794 -0.31865779 -0.46487731 -0.12151085 -0.22589472 0.49100992 0.45213032 0.67388678 1.0057988 0.18753305 -0.23267254 -0.19793774 -0.25336295 0.13600695 0.0053304168 0.71854383 1.2025597 0.59834445 -0.63302702 0.25717071 0.083491281 -0.06466113 0.03222245 -0.14205948 -0.26713225 -0.78069192 -0.34224564 0.46385497 -0.21703811 0.11010342 0.3097797 -0.40687042 -0.83531696 -0.071940631 0.11147476 0.42407763 -0.35778359 0.0062152515 0.62648916 -0.64443517 -0.14073229 0.14424466 -0.12216579 -0.2073331 0.20732674 -0.4782064 0.16945036 -0.49368802 -0.20449169 0.26428151 0.59109735 0.42129257 0.3294763 -0.63193506 -0.53204954 0.63920844 -0.094800286 -0.23796593 -0.53739232 -0.56061631 0.74225646 -0.10837194 -0.05121696 0.14961722 0.36636597 0.43578839 0.17504044 0.11221527 0.72823334 0.10845646
2233 -0.3881714 -0.16791877 0.61598808 -0.7685166 0.17784157 0.13156599 0.53420907 0.93563312 -1.0859948 -0.083917961 0.48351595 -0.07438276 -0.12727717 -0.1282903 0.063599981 -0.13805458 0.070683658 0.12705532 -0.41674009 -0.74647152 0.79045999 -0.67945373 1.0088972 0.60380912 0.12558578 -0.3689554 -0.13645607 0.53367293 -0.077973425 0.13501194 -0.22962208 -0.70454353 -0.64471358 -0.40156904 -0.45507926 -0.16661587 0.35915467 0.6299246 0.049351029 -0.082574494 -0.53793693 0.51113611 0.44865489 0.26406929 0.28097272 0.37237933 0.46705467 0.20760308 -0.82707435 0.23588566 -0.040625278 -0.11281792 0.1323068 0.60713989 -0.53656352 -0.49597594 -0.54425836 0.53995055 -1.3097569 0.88992167 0.39519519 0.049029894 -0.20847389 0.098559938 0.51665336 -0.12470646 -0.40921429 0.0020403659 0.4524267 -0.54404384 0.12829913 0.13747072 0.10071158 0.051080015 -0.28121358 -0.028329177 0.058330711 -0.4685401 -0.33540958 -0.60320836 0.46858501 0.65551835 0.64038283 0.075294696 -0.61225188 -0.25545207 -0.072413981 0.11907699 0.39090833 -0.10956435 0.22045535 0.2280702 -0.33362931 0.17949282 -0.79987621 0.07797572 0.10946757 0.090384714 -0.17122661 0.10286564
1530 -0.53150964 -0.2365424 0.81921899 -0.36344376 0.59223872 -0.61235225 0.10494317 0.35197666 -0.74510992 0.23988655 0.67072082 -0.53512394 -0.032601085 -0.014513247 -0.22352228 0.21943861 0.45642442 0.26771691 0.098140925 0.057289869 0.039439049 -0.58059072 0.91506654 0.799815 0.0010640189 -0.46445149 -0.27741084 0.095299006 0.2421252 0.15678985 0.47966868 -0.069460399 0.033139274 -0.099274717 -0.38639331 0.092577681 0.17611009 0.47359821 0.46282285 0.22964963 -0.68658072 0.33828098 0.40350991 0.13263477 -0.39840448 0.71768314 -0.12343084 0.11530565 -0.098238997 0.77754146 0.080319479 0.30347997 0.36252415 -0.037867352 -0.88354099 -1.0336068 -0.084931165 0.66461074 0.12663233 0.77251303 0.36631134 -0.05425746 -0.038341321 0.24653126 -0.88946873 0.31456533 -0.24450155 0.54979199 0.95185465 -0.19230986 0.87338114 -0.37067053 -0.12109468 -0.29114658 0.44274735 0.16649123 0.60580248 -0.072921969 0.02987821 0.70383406 0.3823303 0.49566638 0.3048619 -0.83426905 -0.15269843 0.57913917 0.036048267 -0.32351512 -0.28616109 -0.2743105 0.84744495 0.82318372 0.11790279 0.40218508 -0.070040025 0.40355867 0.74824923 0.081640609 0.52401644 0.081546813
500 -0.32741296 -0.23150371 0.47054735 -0.84356433 0.36776468 0.091050349 -0.52740151 0.386103 0.38558766 0.68673289 0.31487718 0.20607527 -0.39715824 0.25739539 -0.15677376 0.24819607 0.13340998 -0.22746828 0.07926093 -0.011823033 -0.86374426 -0.66311622 0.81488895 1.0763364 0.83290678 0.09573748 -0.0021210918 -0.07298366 0.48071232 0.6008954 0.060570572 -0.87019753 -0.49343857 -0.55467945 0.063272372 -0.20675825 -0.031446025 0.67079324 0.47224489 -0.33703238 -0.30316257 0.37368241 0.078702137 -0.40631005 -0.70343304 0.1037414 0.021370102 -0.45887822 -0.55135942 0.55954963 0.082933716 0.22217037 -0.50296432 -0.30184385 -1.0481167 -0.56163859 0.68096787 0.28699094 -0.29773721 0.2966319 0.3391262 0.70650768 -0.16317132 0.0086436579 -0.81910807 0.170828 -0.34390691 0.021402128 -0.58963305 -0.053839859 -0.038763002 0.3029336 -0.09499605 -0.18599711 0.09219899 -1.3944876 0.83121109 0.07593739 0.21918707 -0.060983382 0.3871015 -0.30330268 -0.47137469 0.0068033016 0.62587094 1.1973523 0.88737631 -0.5300945 0.39999098 -0.24067029 0.71562123 -0.003228345 -0.41191766 0.60719168 -0.049798291 1.2428927 -0.51108986 -0.93585861 0.52926999 -0.23261015
6342 -0.24311371 -0.21246114 0.41094166 -0.20865683 0.29739848 -0.25553483 1.1690156 0.26829571 -0.79765773 0.24293794 0.22139524 -0.51081967 -0.89719701 -0.14823306 -0.087989062 -0.4449296 -0.50352001 -0.34410918 -0.2337518 -0.61782771 0.099752992 -1.3729118 0.85412258 0.327223 -0.60761136 -0.16928212 0.095475949 0.78659755 0.29968521 -0.20395613 -0.59621465 -0.067809783 -1.1186092 -0.97587168 0.33368838 0.4937925 0.10957276 0.017048508 0.23413754 0.32038635 0.037349854 0.29235941 0.96711242 0.90791059 0.54470146 0.49387339 0.1186441 -0.45457336 -0.19169037 -0.0054574711 -0.42804214 0.37998557 0.85517943 -0.32467234 -0.1340649 -0.5707925 0.37538031 -0.36222312 -0.078185126 0.87391055 0.16440937 -0.088428244 -0.39841372 0.32857385 -0.55489492 0.35496387 -0.22672784 0.05084303 0.57498592 0.15267201 0.11159561 0.033767875 0.84362572 -0.98116118 0.42610058 0.22415905 0.88345921 0.69371152 -0.70812654 -0.18534166 1.1235554 0.10344199 0.18735975 0.012598212 -0.81420338 -0.44192281 1.3316683 -0.375808 0.42871428 0.51054043 0.45466343 -0.045656629 -0.15614484 0.37889132 -0.16528206 0.44283918 0.31127343 0.25840056 1.3812108 0.35983056
1621 -0.00061230443 -0.30870962 0.18577294 0.41064304 0.40759143 0.33205336 0.0010712082 0.62919962 -0.35829884 -0.28348529 0.27173737 -0.06202735 -0.18775736 -0.30317023 0.72063476 -0.36736816 0.21411119 -0.63049322 0.06419386 -0.040801279 0.61231852 -0.74986863 -0.072060816 0.49548224 0.22705466 -0.34644899 0.16066514 0.56532997 0.23561335 0.58911163 0.98412442 0.44119295 -0.79993004 -0.14132529 0.66910231 -0.50302029 0.5874173 -0.052193344 -0.329671 -0.25501075 0.6478582 -0.29010534 0.20127101 -0.056177404 -0.21112201 0.43695071 1.0333246 0.12177031 0.0085444637 0.40918019 0.31853276 -0.16618384 -0.10283019 0.51247531 0.095870331 -0.96285832 0.12330312 -0.12720798 -0.45861238 0.67017388 0.69586986 -0.11263679 0.36552149 0.11904462 -0.55135936 0.088413566 -0.17888278 -0.671516 0.22035222 -0.36298087 0.30966297 0.097568996 -0.087015107 -0.13154472 0.1247078 -0.092037752 0.62844628 -0.20440255 -0.54580587 0.44669276 0.60691065 -0.15156305 0.13388641 -0.33170435 0.32617801 0.050336447 0.46894133 -0.65382868 -0.16520038 0.4108398 1.0057238 -0.47978845 -0.29497206 0.56500947 -0.47289652 -0.24344969 0.027543692 0.18368579 0.44006407 0.31299958
1910 0.10209092 -0.40497357 0.72196603 -0.3708483 0.79970622 0.12679051 0.26629597 0.23756547 0.9940626 0.50299317 0.4867374 0.80004472 0.20526807 -1.294242 0.26857802 -0.44035003 0.26653895 0.23372602 -0.37535498 0.060735025 -0.43163368 -0.24902062 0.87577593 1.0984516 0.53489721 -0.32487771 -0.61632919 1.0687517 0.056374714 0.078688189 -0.10831384 0.27574372 -0.12441669 0.1853556 0.3513079 -0.042670686 0.47570375 1.1823498 -0.33253753 0.26070496 0.70177954 -0.32101005 0.75665373 0.73169839 0.27148476 -0.63523722 0.85565019 0.15707061 0.058978073 0.23251395 -1.1494544 0.38725755 0.62526441 0.31072477 -0.0060428265 0.22423932 -0.55349654 0.35655364 -0.24308224 0.3280746 -0.064199582 0.0081632426 0.33172882 0.27603358 0.064084865 0.38096124 0.05926726 -0.12881564 0.51126623 0.29639947 0.53673333 0.13619921 -0.63286853 -0.41232249 0.34246287 0.054020144 0.17694642 -0.099180408 0.20878471 -0.59611762 -0.07412038 -0.63425756 0.43034795 -1.0370843 -0.53820252 0.14679958 0.27868563 0.21687295 -0.2483981 0.1911747 0.68186963 -0.42368779 -0.37456298 0.25613394 -0.0082873357 0.60297656 -0.086303473 -0.11980669 0.51185584 -0.19788994
1518 -0.35486156 -1.0223082 0.20070966 0.50274557 0.37971458 -1.1195954 0.0525737 0.496252 -0.48179412 0.75010329 0.84409547 -0.30141568 0.059590966 -0.54689175 0.80731559 -0.06890896 0.48349547 0.10344145 0.39844096 -1.137787 -0.41327211 0.60002244 0.10195114 0.40677321 0.45089406 -0.43320248 -0.6282416 0.41596839 -0.51080841 -0.46999115 0.31084234 -0.39311141 -0.49892458 -0.53214014 0.09935125 0.15049371 0.32908532 0.47935861 0.86386073 0.46007645 -0.37078443 0.16673954 0.758533 0.38142005 0.70848495 0.328246 0.17076489 0.59009326 -0.38724378 -0.21036877 0.40877926 0.70509869 0.52061445 0.61765534 -0.020152012 -0.61114544 0.06250336 0.30312005 -0.16458589 -0.96766698 0.27424449 0.08606036 -0.18259564 0.5331068 -0.24139588 -0.079970889 -0.17578258 -0.37429336 0.35976446 0.12131915 0.33115268 -0.35150632 0.068244725 -0.17017199 0.78248727 0.15085246 0.64610404 0.45509505 0.23844907 -0.23226166 0.45712218 -0.034002099 0.35779685 0.54051137 -0.58172321 0.24746817 -0.08412078 -0.46670425 0.45945287 0.082449518 0.6225481 -0.40058446 -0.32826158 0.1407959 0.41632283 0.16619414 0.014290096 -0.097785495 0.31774735 -0.057042927
1560 0.0050298516 -0.28975293 0.23765294 -0.76252627 0.63901424 -0.44705459 0.5227502 0.96260077 -0.48337018 0.39396274 -0.85166061 -0.066122696 -0.26524043 0.13442689 0.32152519 -0.035586026 -0.14987129 -0.31808168 -0.042635169 -0.79525977 -0.36382815 0.51256579 0.03348485 -0.072555013 -0.25541931 -0.84628427 0.050358284 0.22955434 0.047679309 0.025077695 -0.68194795 0.12852284 0.42120779 0.012883966 0.38966578 0.46766311 0.084793597 0.67724746 0.35780647 0.020125648 -0.070097215 0.43954608 0.59204656 0.32761735 -0.73911744 -0.077914357 0.49644172 0.34771797 -0.024144806 0.41793704 0.032852992 0.9669286 -0.96414006 0.64604187 -0.97123504 -0.73079276 -0.20472956 -0.12349778 0.6082201 0.825207 0.39466166 0.20688622 -0.10017945 0.5068509 -0.97902966 -0.59314519 0.13647646 0.44322798 0.57011062 0.062101081 0.17960578 0.84274095 0.26417005 -0.78325343 0.086885318 0.15766832 0.99518692 -0.64313084 -0.3299734 -0.25043759 -0.29531047 0.3104921 -0.25770777 -0.79527164 -0.43874457 0.38341886 0.75152153 0.36546919 -0.60868472 0.23699079 0.74619776 -0.17843527 0.11326888 0.70487887 -0.29484019 0.45417675 -0.018300187 -0.052220266 -0.26794276 -1.1843498
1418 -0.1522347 -0.1529047 1.1998503 -0.60681647 0.70790166 -0.11209062 -0.23637293 0.95090938 -0.0023674045 0.47783172 0.70886993 -0.4473854 -0.0013501749 -0.65562999 0.32547027 0.03068989 -0.10436474 -0.40172479 -0.29941729 0.19775896 0.36124331 -0.85494953 1.1253139 0.1955736 0.14209567 -0.11178503 0.052476976 0.82512885 0.073363774 -0.03906814 0.37885013 -0.15345478 -0.50157762 -0.50009239 0.2794596 -0.065029249 -0.4391121 0.68786895 0.11288969 0.17212135 -0.57625234 0.13725051 0.20896193 0.22601768 0.67029154 0.40154523 0.15404852 -0.004695653 -0.81315267 0.13723049 0.12017351 -0.59164888 0.51517171 0.36892968 -0.3762171 -0.55616176 0.21988124 0.53842479 -0.7877959 0.63601625 0.53719914 0.54208034 0.43279648 0.023992062 -0.038530938 0.096256316 -0.36426538 -0.32563785 0.28402904 -0.68658298 0.6152007 0.086432107 -0.39298689 -0.45890835 -0.14465229 -0.12292482 0.78944772 -0.58142537 -0.25994503 -0.47079074 0.6477657 0.048379596 0.61587709 -0.36596146 0.29650921 0.24346362 0.63250697 -0.34757543 0.33371332 -0.22475077 0.79423577 0.093881987 -0.15764317 0.28836679 -0.5191527 -0.39514068 0.1674924 0.4609929 0.14867365 0.13778727
2066 -0.27958167 -0.062870428 -0.25819996 0.029128404 -0.058704711 0.65697497 0.48730096 1.4542662 -0.33386278 0.69448799 -0.066159151 -0.25311747 0.2372223 -0.32596639 1.0078032 -0.37265036 1.0421451 -0.46773848 0.44155642 0.26579034 -0.40446448 0.10068025 0.093607649 0.53325433 0.19631553 -0.14118817 0.53562671 0.12177401 -0.25493839 0.14742555 0.24014214 -0.62438524 -0.63626546 0.044760808 -0.087941036 -0.12877472 1.0115523 0.30848005 0.07182911 0.82261693 0.25528559 -0.17303357 0.29627544 0.86496437 -0.70881116 -0.49854359 0.56911552 -0.023790605 -0.090773091 0.007473066 -0.117391 0.35001162 -0.53898442 -0.18213259 -0.020757399 -0.84286982 0.19281571 0.24823904 -0.70573795 0.39183369 0.35441488 0.14779069 -0.26690301 -0.25939324 0.58579403 0.0050119143 -0.98521107 -0.021536276 0.15477306 -0.16475572 0.2657572 0.47938633 0.10708823 0.087579347 0.56823921 0.4515985 0.98965406 -0.27937394 -0.054124892 -0.15264989 -0.064740151 0.76766795 0.12663744 0.067340091 -0.061193205 0.096987352 0.22073036 -0.57817632 -0.22920544 -0.33189145 0.23325562 0.06234673 -0.42913154 0.58101803 -0.42844105 0.65613663 0.4537729 -0.2216635 0.51659369 0.35285008
2099 -0.23661041 -0.20667064 -0.20261259 -0.20995745 0.51432234 -0.16819601 -0.89625514 0.52172196 0.024858862 0.42500481 -0.53869087 -0.062941805 -0.45708802 0.55853415 0.4901334 0.31827846 0.4738901 -0.23048812 0.27302447 -0.69925731 -0.54901636 -0.4671931 0.66204971 -0.09149836 0.65694767 -0.13001001 -0.65356857 -0.39513925 -0.10333984 0.00024805919 0.45262405 -0.30869567 -1.0607975 -0.7444759 -0.023902195 0.15877979 -0.12500153 0.062664151 -0.38941151 0.14749193 -0.2026564 0.22879159 -0.0497628 -0.11279024 0.24043883 0.47990078 0.75881952 -0.37969249 -0.4093515 1.0225625 0.27002466 0.39717761 -0.31961554 0.14353831 -0.6095646 -0.65295446 -0.66484582 -0.14150393 -0.57089895 -0.029163498 0.16950721 0.14868703 0.018951727 -0.006665762 -0.19135526 0.032478131 -0.048354223 0.20423281 -0.081028834 -0.0042352662 0.455291 0.38294226 -0.46746507 0.038836058 0.11949498 -1.0756738 0.93679291 0.48451141 0.32852539 -0.21067937 0.51542896 0.024747297 0.059038144 -0.40843296 -0.24446268 0.16408594 0.53371811 -0.34735429 -0.17279947 -0.40072572 1.2419952 -0.51832289 0.26884365 0.38238657 0.066956505 0.066324502 0.1555852 -0.39010295 0.99867433 0.047598727
2078 0.051432408 -0.59570044 -0.12558922 -0.36874995 -0.0037228798 -0.0093061663 0.49050403 0.96806175 -0.48630422 0.35450262 -0.2471192 -0.58506274 -0.60308212 -0.42552158 0.65365231 -0.046086442 0.0044582789 -0.61926764 0.44587338 -0.11867644 -0.040627614 -0.79461688 0.39129484 0.17339209 0.19876958 -0.6898334 0.35192174 0.20255579 0.47122312 -0.32051635 -0.1212777 0.081106745 -0.47552037 -0.2062884 -0.095788531 0.33524033 0.39146551 0.099745475 0.17593771 0.52213949 0.39967304 -0.4685882 0.70751047 0.48289317 -0.21661909 0.45528042 0.56676084 0.039437648 -0.16981053 0.0508512 -0.58547592 0.067139171 0.53491527 -0.05154131 0.47657865 -0.30395341 -0.0056440011 -0.22634844 -0.094798855 0.40025234 0.032639701 0.031956784 -0.19881791 0.39438173 -0.59972227 -0.20855367 -0.4695698 -0.40396479 0.45868608 -0.43706787 0.2755807 0.3367492 0.48577905 -0.55711043 -0.0050840871 0.50111401 0.91183448 -0.30883017 -0.75114095 -0.47645593 0.64660144 0.96139568 -0.085709631 -0.085947298 -0.32743305 0.034785599 0.86808199 -0.87791198 -0.41909477 0.11368676 0.38366985 -0.53197312 -0.20110866 0.39021105 0.077932119 0.30638468 -0.15174361 0.43756601 0.59181029 -0.030438283
446 0.31852296 -0.41949734 0.27794555 -0.32049504 0.066757277 0.38031253 0.054317035 0.63339877 0.065001905 -0.35043347 0.43132839 -0.48141712 -0.32279527 0.080530681 1.1039393 0.048479915 0.36865485 -0.36603478 -0.13911033 -0.37698483 0.48794955 -0.6273433 -0.061462816 0.54009748 0.38065559 -0.15674473 0.018961923 0.18887904 -0.6030916 0.79391074 0.62064379 -0.65429974 -0.22974443 0.0090959612 0.11496082 -0.469832 0.43748319 -0.2452202 -0.0085163182 1.2658384 -0.53330863 -0.0050382791 0.096401677 -0.24137972 0.30210385 0.019578571 0.25767162 0.34750032 -0.13098587 -0.36127365 -0.24402471 0.6713742 0.26772448 0.12828654 0.32046047 -1.4015821 -0.18456158 -0.1445034 0.32744515 0.20843819 0.69457477 -0.5907799 0.11363966 0.26975158 -0.57791162 -0.3759529 -0.7998755 0.11790914 0.69055706 0.39337409 -0.4529976 -0.35171068 0.3218371 -0.24246068 0.49055782 -0.68255854 0.28155473 0.25516334 -0.29008791 -0.48817071 -0.21193448 0.16067316 0.46105647 -0.13622141 -0.035791699 -0.11142387 -0.041830286 0.50325161 0.25016463 0.16610494 1.3837798 0.051807866 -0.012597336 0.4184489 -0.43695357 0.48508415 -0.27338326 -0.55839169 0.80220842 0.24968413
5876 0.47365093 -0.27036473 0.017912608 -0.391927 0.9288879 -0.58703446 0.25688368 0.58829981 0.30399424 0.72837162 0.77979523 0.043172978 -0.56856179 0.87114722 -0.055673104 -0.09856081 -0.49275261 -0.77750915 -0.039901484 -1.2117282 0.3736527 -0.90270573 0.23036884 -0.43472838 -0.29712114 -0.3279134 0.13222156 0.51976162 -0.61158139 0.95788836 -0.562069 0.53109497 -0.78666788 0.12095388 0.020575801 -0.87370962 0.57495177 -0.47293854 -0.75035679 -0.19568606 0.77769208 1.0270061 1.2443378 -0.20549415 0.0037183086 0.48542333 -0.14474127 0.64934313 0.18687972 0.8363843 0.64210629 1.0906426 0.1034393 -0.1772929 -0.97350538 -0.60210091 -0.53743905 0.56717998 0.33401516 -0.14999086 -0.033339296 -0.60066199 -0.57739496 0.23248224 0.70786297 0.33305973 -0.50632137 -0.18436399 0.66689509 0.78075105 0.58815324 0.1286108 0.16136158 0.25106806 0.070737757 -0.82920665 0.090928562 0.041677468 -0.65285873 -0.33987433 -0.10211813 0.37810582 0.16119358 0.31432879 -0.61617208 0.59791195 1.2923375 0.52934301 0.59889561 -0.25389817 1.4254823 -0.061562657 -0.30474404 -0.053556453 -0.93015951 0.11796045 0.68323714 -0.5665952 0.030682281 -0.30365217
960 -0.35090673 -0.60077703 1.1749741 0.12852721 0.62269956 -0.1595439 0.13621759 0.97454774 -0.79350108 -0.047136378 1.0628076 0.57419193 -0.2450643 -0.86359018 -0.28703746 0.20779788 -0.03809635 -1.0670891 -0.58876044 0.23363028 0.29644337 -0.72907966 0.54073364 0.95428008 0.098207943 0.53816909 0.03238295 -0.017534453 -0.57774621 -0.32611054 0.23849075 0.12047955 -0.14439571 -0.30505651 0.14082548 -0.50217974 0.44216016 0.51046926 0.25833195 0.099715553 1.0176574 -0.043168027 1.1921227 0.14691934 0.42655572 1.0822029 1.0303972 -0.93979257 -0.91663873 -0.60411018 0.69898641 1.1878595 0.27387175 -0.064497016 -1.6682966 -0.30045614 0.9875977 0.17389549 0.31728181 0.37721235 -0.22635061 0.51277232 -0.6079427 -0.57679647 0.061728742 0.17739475 -1.0640178 0.031490795 0.28803781 0.063015297 1.0810162 0.1120903 0.56667244 0.53923404 -0.11098275 -0.75554931 -0.508834 0.87249309 0.094908282 -0.92256838 0.56700367 0.77222484 0.9071523 -0.61599267 -0.16759534 -0.51728761 0.046258286 -0.111579 0.92569989 -0.55726856 0.50121027 -0.69755554 0.27859238 -0.17800173 -0.67581087 0.087364957 0.084085464 0.42424411 0.62052172 -0.12246089
5398 -0.050928265 -0.6122604 -0.3955856 -0.9411124 -0.49191713 -0.75412273 0.11465678 0.16137107 -0.21377496 -0.027794888 0.77045697 0.41710064 0.090806536 0.068463802 0.2266757 0.099596381 -0.42867112 0.63737327 0.0039364961 -0.7056101 -0.53984022 -0.45536053 0.83325386 -0.026390411 0.023901831 -0.29294744 -0.39250124 0.66686571 -0.40671042 0.089684531 0.38421527 0.21334176 -1.2385122 -0.6558733 0.48332265 -0.75729692 -0.39902735 0.33508334 -0.45836318 -0.3329767 0.33218199 0.36585745 0.66556895 0.34290865 0.48832086 -0.19007371 1.0291327 0.19218086 -0.25408161 0.56242871 -0.96381229 0.80025768 0.80502331 0.60086125 -0.5258038 0.031770412 -0.088729978 -0.2532219 -0.85731423 0.69729799 0.02525533 -0.21905591 -0.64445889 -0.28651914 -0.57094461 0.02794046 -0.85713208 0.047844533 0.61340576 -0.24221253 0.32263979 0.31912392 0.55123287 0.3650656 0.4951328 0.1297498 0.25337458 0.015040547 -0.064214729 -0.6078741 -0.13065973 -0.15481451 -0.64061165 -0.05278055 -0.83058739 -0.07942564 0.33691159 -0.50227863 1.1805125 0.53989631 -0.27827922 -0.40151784 -0.85793746 0.30742106 -0.13056669 0.27536917 -0.32781729 0.27694833 0.092366822 0.031004075
6698 0.01863429 -0.38586387 -0.59767228 -0.12832023 0.66838932 -0.39307645 -1.2390714 0.66871923 0.13421743 0.34516305 -0.52377695 -0.20449725 -0.49561757 -0.07520207 0.20271598 0.62314492 0.64303017 -0.73478019 -0.13485765 -1.0146319 -0.38197052 -0.54643661 0.57053715 -0.2404355 0.32279888 -0.11128457 -0.54610974 -0.25221217 0.26970446 0.10301828 0.096423186 0.28016186 -0.83573699 -0.085765064 0.097452477 0.16399956 0.10366199 -0.0033379432 -0.80010128 0.32676342 0.036739137 0.20443074 0.19324353 -0.001602254 0.77563393 0.68764615 0.61849695 -0.040017225 -0.39879581 0.77719331 0.48533547 0.57767016 -0.39186233 -0.087186337 -0.26240852 -0.90569413 -1.1666714 -0.31185266 -0.48632589 0.24367888 -0.21526611 -0.41835114 -0.17075509 -0.15053923 -0.27635318 -0.84847611 -0.19287276 0.22057042 0.4495666 0.11002983 0.81556457 0.39185503 -0.19315247 -0.15688358 0.7197293 -0.94171721 0.97785646 0.16585813 0.42279169 0.18569019 0.14165229 -0.07745526 0.47833681 -0.48765117 -0.25714675 0.29812005 0.81402552 0.091105066 -0.31696972 -0.53637725 0.98395962 -0.51132363 0.79928684 0.19544603 -0.25499421 -0.5361231 0.058945425 -0.55336493 1.2961907 -0.27756405
6393 -0.42575264 -0.61388689 0.25384524 -0.059171475 0.89108241 0.40913004 -0.48776549 0.8481167 -1.2850194 -0.079998881 1.4329457 0.11321445 0.0045951777 -0.47341165 -0.10936132 -0.45481521 -0.21280581 -0.14950937 -0.41374731 -0.46130395 0.063429952 -0.61150783 -0.2200547 0.69784743 0.067748688 -0.19159445 -0.13356416 -0.1510637 -0.2588293 0.24121368 0.11133906 0.48431194 -0.35466266 0.13394159 0.099413544 -0.65332657 0.44491088 -0.53630471 0.11280952 -0.35313785 0.36928621 -0.078281857 0.46717075 -0.22566575 -0.23232846 0.82015312 0.94593281 -0.15466227 -0.720213 0.20948279 0.45427349 0.055004388 -0.41450962 0.41609886 -0.13017669 -0.6468991 -0.38035959 -0.23762764 -0.34904808 0.94629914 0.14991598 -0.1951438 0.033564847 0.68177247 -0.44600779 0.054535568 -0.21170856 -0.45427594 0.72787213 -0.47288471 0.40338865 0.49499136 0.45486721 -0.0060493783 0.25581911 -0.52523541 0.3374435 0.12751257 -0.66232556 0.29019007 1.1199157 0.18023632 0.39650068 -0.65625435 0.59242654 -0.69312805 -0.010980953 -0.36788249 -0.32039484 -0.25532573 0.20404598 -0.43799591 -1.0101246 0.016711351 -0.55698615 0.21026289 0.26418152 0.77199584 0.47563481 0.022863606
4605 -0.32767054 -0.028407412 0.92054373 -0.49072272 0.36230969 -0.78919286 -0.20255192 0.28460762 -0.41310647 0.36144626 0.66504902 -0.82204229 -0.21651354 0.066400841 -0.15378122 0.4595305 0.53725964 0.61340463 0.21709982 -0.10722153 -0.068620242 -0.69511724 0.67907077 0.57292414 0.20591283 -0.55121928 -0.025502514 0.194746 0.083181724 -0.021329181 0.53028005 -0.2639429 -0.33334371 -0.38557252 -0.49852261 0.055190276 0.21608949 0.43293411 0.42102683 -0.010717198 -0.63110715 0.28148881 0.68784982 0.16930811 -0.032054987 0.34529454 -0.095569648 -0.071189009 0.094212309 0.83716667 0.37868938 0.602485 0.47559878 0.19299676 -0.60065317 -1.1270566 -0.31410635 0.56331295 0.037024174 0.46399358 0.19843099 -0.039463736 0.16071314 0.28425026 -0.7833519 0.57931709 -0.35960865 0.31975627 0.78912818 0.17854525 1.0182909 -0.49414855 -0.017858965 -0.51765567 0.51282775 0.32412741 0.33707461 0.13171764 0.23023048 0.62920022 0.62605256 0.48185644 0.499329 -1.0480182 -0.14520636 0.60905033 0.019463832 -0.44277945 0.26383686 0.045633961 0.86150092 0.51987529 -0.005317858 0.60978413 -0.18103291 0.0014890319 0.80606842 -0.13672571 0.75467795 0.29742926
730 -0.27006149 -0.23005353 0.23747331 0.1336523 0.40791258 0.37402445 -0.063104928 0.29480937 0.25357792 0.14517774 0.15911122 -0.15305007 -0.66118628 -0.12809625 0.35866857 -0.44813716 -0.13808446 -0.60604447 0.27294457 -0.075158238 0.58033013 -0.72368503 -0.11667487 0.078269079 0.17639904 -0.52829754 -0.082855247 0.11544958 -0.026246993 -0.075225316 0.5833084 0.27299064 -0.29174459 -0.71152347 0.56374097 0.36124939 0.44005978 -0.17752494 0.20858276 0.34181315 0.13117966 -0.18344498 -0.2955173 0.1493514 0.13398528 0.43621415 0.71852571 0.4624078 -0.19694728 0.23341958 0.11004873 0.050668638 0.60352737 0.25191915 -0.23187338 -0.59813803 0.80285072 -0.083264485 -0.47185749 1.0361408 0.45854837 -0.033004198 -0.18501031 -0.099830389 -0.34979254 0.027593393 0.27679709 -0.61457711 0.28105479 -0.065723084 0.33101082 -0.040416777 0.33503875 -0.49223027 -0.14551625 0.049123518 0.48817876 -0.22288534 -0.44905019 0.67974418 1.0488592 -0.20358539 -0.58579284 0.13782246 -0.27382246 0.45177713 0.86480904 -0.99951106 -0.04111743 0.019507842 0.23802067 0.13038258 -0.07059022 0.40505481 0.010323329 0.079279482 0.040379129 0.033761341 1.2332004 0.47883373
472 -0.36306345 -0.48144624 -0.31003007 -0.004229492 -0.24444976 -0.89783013 -0.2557103 0.07552141 -0.4749046 0.1696469 0.56951571 -0.1269711 0.065853521 -0.026454991 0.83612442 -0.08374726 -0.090081692 0.88676274 0.13722245 -0.94073647 -0.31733391 0.11632851 0.97083169 -0.037845187 0.38187253 -0.32339901 0.0013466045 0.083352134 -0.16653308 0.19711521 0.5165168 -0.16083358 -0.39547145 -0.53219157 -0.074299186 -0.70948434 0.0036490385 0.23264891 0.06147828 0.33567896 -0.17231202 -0.10242636 0.86148018 -0.06505885 0.58791488 0.14963783 1.2442154 -0.16034141 0.21801335 0.8011297 -0.44256106 0.49619493 0.45477489 0.89975226 -0.1371125 -0.58564442 -1.0998453 -0.12271916 -0.75610143 -0.0017665833 -0.098614633 0.15007374 -0.14078856 0.21225815 -0.53356856 -0.035731081 -0.61252427 -0.039047051 -0.0026931588 -0.33490559 0.15691283 0.16916852 0.071634501 0.58644313 0.38375509 0.16110167 0.58185154 0.1348675 0.38782176 -0.48793909 0.11268215 0.44363305 -0.27114046 0.48684642 -0.56470376 0.41778263 0.29284838 -0.56250519 0.37281206 0.27872059 0.8965407 -0.15958795 -0.78845447 0.18309404 0.15641347 0.20897503 0.24008046 0.18250772 0.14643648 -0.42958194
5018 -0.15291458 -0.45531416 0.67425066 -0.80149108 -0.024253124 -0.13706595 0.49087265 0.33753017 0.24753842 0.26585093 0.33542493 -0.12645079 0.88226277 -0.060422208 0.86374748 -1.0961117 0.60275787 -0.48922285 -0.46406788 0.045992818 0.15712546 -0.22888635 0.82364899 0.45911217 1.2899028 -0.65538037 -0.063736394 0.080098547 0.30964476 -0.80742633 -0.18834428 0.19733521 0.58420563 0.11927831 -0.1270691 0.46580952 1.119949 0.20490602 0.42018381 -0.57330823 0.23390384 0.15216787 0.81793392 0.15197185 0.30084914 0.25778958 0.45444131 -0.21455856 -0.5540399 0.38841331 0.37727109 0.42185599 0.020784291 0.22655152 -0.8021853 0.015760211 0.12484635 -0.41000453 -0.14688985 0.99116492 0.49388924 0.37644857 0.12238057 -0.072928198 -0.4000262 -0.37694284 -0.19975561 1.253863 0.32957485 -0.38833287 0.39380184 -0.39546543 0.5142284 -0.31300625 -0.017013161 -0.59131157 0.66270494 0.4125998 -0.63220549 0.46302271 0.46906218 0.25469142 -0.15416944 0.38990143 -0.39736459 -0.24319409 0.30107796 -0.32712376 0.76603943 -0.40713385 -0.30361044 -0.73855567 -0.6098811 -0.62362266 -0.72586268 1.5281202 -0.53263342 -0.77469033 0.90549594 -0.083674282
6758 -0.2328468 -0.33914125 -0.27442291 0.0056485315 0.73586452 -0.34129044 -1.0170975 0.95810014 0.10133322 0.51757091 -0.49648497 -0.070684724 -0.48194763 0.3048923 0.29813927 0.43344125 0.41232634 -0.91266298 0.30378652 -0.76917869 -0.24334717 -0.78698939 0.81032294 -0.56368858 0.34266531 0.19423909 -0.0076836692 -0.73106974 -0.33004764 -0.24678352 0.55643564 0.38233522 -1.0913181 -0.3869257 -0.14528559 0.043865498 0.16683817 -0.10924073 -0.4982681 0.41212174 0.18248694 0.0090661403 -0.049524926 -0.061196223 0.65893465 0.49483937 0.60828054 -0.25070941 -0.7066021 0.73655307 0.12367751 0.60874104 -0.18861431 -0.21039268 -0.21429425 -1.2584807 -0.75332338 -0.34240082 -0.68563151 -0.07711491 0.18946894 -0.21175872 -0.020819558 -0.18292981 -0.21449529 -0.11807135 -0.31223741 -0.02532934 0.57206994 -0.14058033 0.73738617 0.25517562 -0.055094991 -0.23174287 0.46393889 -1.2271851 0.67171323 0.64231277 0.30369544 -0.10317344 -0.053587712 -0.031683706 0.31042299 -0.60747516 -0.024213612 0.44852635 0.43078607 0.24895926 -0.11508527 -0.47709987 1.3068814 -0.9386341 0.47099468 -0.0053446456 -0.29398629 -0.21301356 0.30615336 -0.2957713 1.4513662 0.16451772
1655 -0.71982747 -0.0037770336 0.054799717 0.074961051 0.33797359 0.51574194 0.3004114 0.97768599 -0.39328602 0.24508768 0.17416017 -0.015315338 0.34006122 -0.35416397 1.0527961 -0.903651 0.73622203 0.1800869 -0.23567832 0.65441424 0.053926997 -0.12882768 -0.048969697 0.72102249 -0.3729215 -0.41034302 -0.55620599 0.21800406 0.13155843 0.73658288 0.42578468 -0.52851099 -0.37441117 -0.075843304 -0.096109442 -0.33424231 0.53253615 -0.046857025 -0.35391301 0.43149436 0.40780661 -0.26634148 0.58545792 0.78139305 0.01514227 -0.36478695 0.66628295 -0.55040449 0.12082234 0.26001999 -0.50850332 -0.097887591 -0.48473087 0.294994 0.1807673 -0.16172442 -0.14623028 -0.21638504 -0.49429163 0.63579726 0.10774694 0.03436869 0.52404064 0.15653937 0.31149083 -0.018373244 -0.38576725 -0.30832323 0.15241183 0.19995943 0.52070296 0.90469432 -0.00070809404 0.32941929 0.82659727 -0.4301731 0.81676787 0.070695594 -0.076547258 -0.3418296 0.50029016 0.17554541 -0.12550549 -0.1013719 0.35985377 -0.2572571 0.34016508 -0.82129657 -0.03793766 0.014327772 0.41942266 0.14343785 -0.30418316 0.62828398 -0.56412882 0.46333972 0.4749009 0.075749017 0.55088991 -0.15545665
1419 -0.00022526931 -0.42495444 0.40945578 -0.10420028 0.23797515 -0.18872915 0.55283719 0.57936877 -0.066398419 0.30964068 0.037031658 -0.21870664 -0.48685864 -0.75856781 0.5107168 -0.39672583 -0.31443375 -0.44134971 0.26319259 0.12155528 0.16164809 -0.90521973 0.44229949 0.3804487 -0.10143331 -0.91619217 0.077902414 0.78990632 0.3960143 -0.15274493 0.08468762 0.30470407 -0.26994237 -0.44012573 0.23415495 0.04487757 0.063274346 0.12164395 -0.025787788 0.58309412 0.39859256 -0.13025992 0.67312193 0.61319935 0.1088151 0.36718482 0.63380617 0.2870228 -0.21492918 -0.088191353 -0.79463822 -0.20611265 0.93143857 0.18860863 0.36125803 -0.015063052 0.44367617 -0.056467544 -0.55777359 0.75751144 0.40511543 0.1741837 0.30809909 0.26693043 -0.66440034 0.21441177 -0.13612346 -0.349069 0.22621514 -0.21723767 0.36532474 0.29445985 0.2625947 -0.6616227 -0.0013267769 0.24488509 0.79320145 -0.096626237 -0.47263083 -0.11760285 0.71252078 0.08178325 -0.21972248 -0.34052104 -0.16818523 0.10771555 0.84101516 -0.87099707 -0.088730574 0.24613826 0.47711992 -0.17341335 -0.21962853 0.37469 0.090901889 0.42902312 0.25128081 0.19626606 0.68571997 -0.14809413
6419 -0.19495958 -0.10291733 -0.20559001 0.33378145 0.32555911 0.5348689 0.58845115 0.69433701 -0.52723563 0.030831914 -0.44057515 -0.47903696 0.58695287 0.90895253 0.0383274 0.69944507 -0.35470346 -1.1683139 -0.075378492 -0.040879846 -0.076995954 -0.92154664 -0.51926363 0.51756436 0.077219993 -0.10784458 0.22876003 -0.024324007 -0.75571471 -0.80133992 -0.65346497 -0.74266309 -0.50049877 -0.93616557 0.0069715884 0.1761529 1.065316 0.2440355 -0.72792846 -0.33172569 -0.08871679 0.2055297 0.23767044 0.10001262 0.62038213 0.90803945 0.34536338 -0.72315735 -0.27782679 -0.061537437 0.33261362 0.79410762 1.0012513 0.25639218 -0.97283417 -1.3094624 0.059539579 0.5498749 -0.028417613 0.98423725 -0.42065322 -0.025139028 0.093081251 0.75261021 0.44099191 -0.092972688 -0.7335605 -0.67873573 0.61834079 0.72585726 0.73220736 -0.61609548 -0.3518869 -0.4761906 -0.17147051 -0.80528182 -0.18572821 0.32016 0.89175355 -0.12941602 0.7050007 -0.20061214 -0.45960435 0.33562464 -0.4868964 -0.12467586 0.10470565 0.021454467 -0.16214177 -0.19201681 0.087389328 -0.11670933 -0.30347282 1.0008724 -0.38775864 0.34430656 -0.23101877 -0.044619713 1.0592176 0.21418171
1618 0.34006837 0.24425222 0.69326222 -0.55150598 0.65258497 0.21400121 0.77474129 0.2779943 -0.57307613 0.78494233 0.23407277 -0.0067587933 -0.61005354 -0.68161684 -0.27041543 -0.056549251 0.046943814 -0.26312417 0.13659258 -1.0314903 0.057251964 0.073409051 0.11583526 0.030306514 0.82052124 -0.60677135 -0.63897568 0.69015998 0.26817951 0.66262186 0.57001102 -0.50869715 0.15244757 -0.31194064 0.44702798 -0.34909418 0.20954043 -0.028196733 -0.5043534 0.31646025 -0.03502848 -0.41013724 -0.18308266 0.89155269 -0.83849996 0.82632422 -0.18145268 0.20699652 -0.45685476 0.056098644 0.19694328 0.64993721 0.38679355 0.27135232 0.26679212 -0.25746369 -0.18334195 -0.60859686 -0.19777115 0.95283478 0.003626958 -0.44415164 0.60450602 -0.053354882 -0.026685379 -0.06585826 -0.77967489 0.49304757 0.35716748 0.77816343 -0.35771087 0.60721117 0.1735165 -0.92507309 1.0270139 -0.73105884 0.25307775 -0.20636015 0.28563571 -0.34198883 0.27198735 0.13109002 -0.27980524 -0.33852395 -1.0551213 -0.20996682 -0.21416624 -0.51803434 0.022164792 -0.20087144 -0.22896439 0.33109426 0.22148415 -0.51936936 -0.14348984 0.31288186 -0.54619604 0.20204574 0.0067615802 0.43930984
4393 0.4962998 -0.25266084 -0.41630554 -0.82447505 -0.034354612 -0.58703911 0.22025046 -0.17994556 -0.080741331 1.1208011 0.29125646 0.37459236 -0.17222974 -0.62739235 0.66718823 -0.58458745 -0.13658847 -0.63078272 -0.28732842 0.056052979 -0.089689076 -0.4730275 0.20609073 -0.29442033 0.14588518 -0.55563635 -0.47962168 -0.3628656 0.025075214 -0.65099621 0.77697659 0.63544631 -0.96282119 -0.10025775 0.65295982 0.33885562 0.44631511 -0.29056737 -0.016639329 0.11868703 0.35746372 1.0612135 -0.44187498 0.75348783 0.27241173 0.29292634 0.66147053 -0.10937244 -0.41319859 0.76796633 0.61618042 0.71841687 0.35036361 -0.46574813 -0.48092136 -1.0613143 0.25003764 -0.49910077 0.017425792 0.019001137 0.31422859 -0.072173633 -0.17543234 0.44336236 0.68548614 -0.30626643 -0.52829951 -0.14690797 0.039551817 0.36150637 0.46741271 0.49661705 1.2105573 -1.3242421 0.65578818 -0.22502114 0.87291503 -0.57768792 0.45208576 -0.37618661 1.1115947 -0.34736606 0.56857699 0.15098502 -0.87167203 0.73154622 1.0962385 0.05426918 -0.25679994 -0.48512176 0.60822314 -0.17224179 -0.07410337 0.39103499 -0.98149288 -0.42883009 -0.23448607 0.063210584 -0.19097534 0.58925682
489 0.44880989 -0.18168852 0.42507055 -0.24316867 1.1309948 -0.40554473 0.62822354 0.45395505 -1.0376725 0.34034389 0.040746119 0.23035286 -0.084144592 -0.64146173 0.33112836 -0.025387648 0.8693772 0.47272229 -0.31484669 -0.54941714 0.57203394 -0.57242215 -0.16004987 0.62675661 0.18095508 0.19617566 -0.00090920436 0.63653171 -0.13223267 0.37972635 -0.37786955 -0.46762002 -0.97030765 0.62348151 0.32284653 0.56315005 1.074656 0.24700198 -0.094466627 0.43513119 -0.34063908 0.55452836 0.35604846 -0.099868976 -0.27937225 0.016438654 0.76213944 -0.088930704 -0.64901936 -0.50450522 -0.81699461 0.34419596 0.21035087 0.3750737 -0.98154491 0.12350696 0.2057109 -0.32279474 -0.74457097 -0.48925009 -0.043056112 0.4113501 0.36812025 0.92614502 -0.49397758 0.19791143 0.19072917 0.60497087 -0.13850431 0.48544919 -0.2358647 -0.34721756 0.13615558 -0.60500091 0.48432007 -0.57554448 0.78860605 -0.15042298 0.63828975 -0.17798321 -0.22717771 -0.49193305 0.0005074506 -0.3849844 -0.018867081 0.26083815 -0.42383808 -0.18201001 -0.080880433 -0.046240143 0.94811618 -0.81189299 -0.48684049 -0.032250587 -0.076752484 0.85779011 -0.20486253 -0.33966106 0.28546876 -0.29534122
1127 -0.72458291 -0.86775315 0.27130902 0.31817457 0.18773511 -0.62638414 -0.055743534 0.65203279 -0.031139016 0.47611257 0.73093694 -0.17242238 0.12712821 -0.53044724 0.62261486 0.2570557 0.12880869 -0.4914844 0.32874617 -0.60432476 -0.44136 0.83245248 0.30865857 0.34230989 0.51075208 -0.27190977 -0.68979722 -0.23698045 -0.32878634 -0.47558764 0.56699657 -0.50407624 -0.60885161 -0.49872243 0.013157238 0.23274301 0.38659996 0.68840092 0.70465457 0.61722964 0.14108239 0.26414561 0.3240262 0.49233541 0.3468729 0.61799234 0.37770477 -0.23119545 -0.43334338 -0.60436094 0.5229581 0.88780427 0.074112028 0.33761045 -0.69100726 -0.58675963 0.20270959 0.60887891 -0.0022313888 -0.58584219 0.10454137 0.28754896 -0.13513614 -0.11382636 -0.50794166 -0.13878772 0.16500843 -0.20039634 0.23418164 0.36355653 0.21528409 0.095556483 0.40931979 0.45588914 0.2493988 -0.46891493 0.37020111 0.68669969 0.33597371 -0.29583099 0.6836949 -0.27808872 0.66036844 0.14993705 -0.36201298 -0.23885792 -0.13480794 -0.33913073 0.55712819 -0.34433407 0.44063935 -0.78544605 -0.28685954 -0.056627419 0.25054461 -0.016682593 -0.27193201 -0.066553712 0.51420993 -0.15387356
255 -0.076580442 -0.5245415 -0.044055786 0.34718171 0.55719918 -0.33468461 -0.29329005 -0.017464718 -0.65875804 0.46726766 0.24178143 0.29523757 0.090101741 -0.45388997 0.1615012 -0.57259017 -0.022962987 -0.05801044 -0.034736503 -0.44307652 -0.14785208 0.034770507 0.8842997 0.47940558 -0.22046433 0.32677978 -0.61657202 -0.051636573 -0.11252952 0.50870651 0.56107283 -0.23127821 -0.18867825 -0.56170458 -0.62714183 -0.44397193 0.6539073 0.48524296 0.48467124 0.55490577 -0.21096703 -0.32196572 0.48713189 0.59255463 -0.44802791 0.49181256 0.78892481 -0.22463273 -0.93063402 0.29515049 0.40611622 0.40639409 -0.067989431 0.12124658 -0.094851792 -0.16985789 -0.75708193 0.55500454 -1.1231577 1.3556226 0.043231841 -0.21597174 0.2340167 0.1169823 -0.20149383 0.13099159 -0.66510707 0.18587554 0.94038486 -0.45051545 0.17759557 0.41740197 -0.5635432 0.1429067 0.65283728 -0.11825019 -0.40837517 0.05069707 -0.17294019 0.10458185 0.29774174 0.47947648 0.72536278 -0.2647934 0.30935171 -0.13093901 0.32913077 0.33777401 -0.70911181 0.37288302 0.40680349 0.17201529 -0.20575505 0.59276879 -0.087980956 0.31736538 -0.053507362 -0.075404733 0.5069198 -0.070869453
1291 0.088414453 -0.77058721 0.34552953 -0.77907372 0.64659381 -0.44822815 -0.056160584 -0.05221745 -0.19112937 -0.11000303 0.93648559 0.53185987 -0.22767477 0.01825867 -0.3093566 -0.4947269 -0.10979003 0.016559776 -0.21527857 -0.34510359 -0.11325145 -0.17140561 0.43893236 0.69127995 -0.089233555 0.027983762 0.29346213 0.22412981 0.71961021 -0.097000808 0.59202129 0.036848005 -0.21909209 -0.37422091 -0.086398907 -0.40468389 0.73199439 0.33881468 0.059576787 1.0028207 -0.42475587 0.15650943 0.28144506 0.21762 -0.40173468 0.20998399 -0.042084072 0.11951669 -0.36857456 0.0206585 -0.22589371 -0.17881635 -0.20181181 0.23673676 -1.3679531 -0.40299463 -0.30985957 0.31844947 0.29299992 0.66944963 -0.36646906 -0.4245142 -0.307538 0.35627308 -0.33758163 -0.21578588 -0.73195469 0.32748255 -0.15721707 -0.19557047 0.27041897 0.26978654 0.024242904 -0.18327053 0.34173578 0.14683688 0.49475217 0.36745888 0.1140596 0.61620295 -0.1852134 0.3344757 0.055181339 0.29737568 0.17177156 0.10417829 -0.071375847 -0.13666028 0.10252086 -0.019763906 0.24302813 1.0210804 -0.55837303 0.59346348 -0.049892496 0.65267283 0.087653711 -0.26561111 0.35193333 -0.3057496
1152 -0.73280478 -0.4393495 -0.17903723 -0.31090906 0.22645251 -0.010791485 -0.21662565 0.34854713 0.27670252 0.31408313 0.20554157 -0.3742145 0.015496582 0.11072427 0.81328088 0.40630418 -0.062101163 -0.32370237 0.56657994 -0.13731608 0.052211247 -0.026152777 -0.011852845 0.4239445 0.44516423 -0.24536784 -0.12960954 -0.30305541 -0.19365601 0.32047543 0.94200909 -0.61302722 -0.49634647 -0.037451804 0.12722726 0.017990714 0.013909144 -0.20684695 0.24141929 0.7351836 0.40811056 0.033545293 -0.29865518 0.24988715 0.045906957 0.76633799 0.59671676 -0.40532619 -0.53230274 -0.14976376 -0.17808951 0.4112536 -0.29728261 0.20725754 -0.37066618 -0.26673728 0.3759068 0.080336533 -0.10000322 0.29692966 0.27267516 0.12169211 0.050725486 0.17777395 -0.54382229 -0.55367476 -0.22472817 0.28937468 -0.49488023 0.0070415759 0.4156619 0.35700071 0.42264351 0.14473876 -0.1256559 -1.0409987 0.55008358 0.014313241 0.15586346 0.25164038 0.73554796 -0.26922241 -0.20080942 -0.34465837 0.12721656 0.43422869 0.18885058 -0.55690652 0.36013511 -0.3327598 0.8948034 0.03267302 0.18665977 0.50312781 0.17953612 0.59484071 -0.032818943 -0.97047597 0.72855079 -0.52444297
3353 -0.037651151 -0.12073754 1.1498784 -0.29045361 0.68919468 -0.32538992 0.11186097 0.19845676 0.36174515 0.4066352 0.30007398 0.20349105 -0.13305737 -0.86140525 0.083052874 0.23004352 0.082063012 0.75853527 -0.065434091 0.38563776 -0.053138986 -0.53635198 0.77818334 0.67646825 0.51278317 -0.31062272 -0.47267416 0.70150089 0.70921648 0.049449794 0.24631311 0.35473558 0.10163554 0.025072061 0.070587024 -0.11582008 0.21143296 0.98096067 -0.44643006 -0.09712784 -0.19338563 0.031301625 0.69048041 0.26351437 0.19764701 0.16644856 0.26351029 0.15560147 0.13739906 0.59039384 -0.29037011 0.26991531 0.49766392 0.23073457 -0.47453672 -0.72043329 -0.32103613 0.46591848 -0.36518988 0.7594496 0.25551143 0.58949161 0.6235441 0.37399501 -0.36470872 0.31579593 -0.24684456 0.0092894873 0.4893606 0.23364125 0.69690597 -0.30466798 -0.65938389 -0.57958406 0.3414824 0.073089957 0.32839739 -0.21221067 0.55658227 -0.14068422 0.23065035 -0.15133578 0.1590037 -1.1006875 -0.23897973 0.29641768 0.13630003 0.22701184 0.057819929 -0.10653619 0.83575094 0.17025417 -0.5073759 0.10464153 -0.13537875 0.62288684 0.33465374 0.065175392 0.17204461 0.081094556
1345 -0.013075498 -1.1385022 0.42925185 0.2049977 0.89416218 -0.47537428 0.34515756 0.62551337 0.061738435 -0.050572686 0.31538337 0.004802431 0.4404209 -0.59179765 0.59358019 -0.28063023 -0.17502239 0.14997761 0.63607562 -0.43302307 0.16480401 0.2581268 -0.28498456 0.79151493 0.29532051 -0.5119794 -0.35758895 0.56113964 -0.022356642 -0.31211099 0.75098759 0.3762351 -0.036466438 -0.17151438 -0.075780928 -0.43777213 -0.31184864 0.15100548 0.22516064 0.64104927 0.44080222 0.1904297 0.4905389 -0.28076261 -0.12992847 0.46441615 0.61666626 0.42726234 -0.077688329 0.23042117 0.48956686 -0.084363617 0.73308074 0.44170889 -0.47984329 0.17076665 0.2368874 0.40103987 0.21725447 0.25931248 0.5975014 -0.2742154 0.23784566 0.10186657 -0.31246567 0.15951735 -0.55456293 -0.25467694 0.32441774 -0.050842904 0.13195477 0.016632911 -0.47243598 0.027808139 0.57583636 -0.16313501 0.14181818 0.023739282 -0.038170964 0.22090739 -0.10029136 -0.30022541 0.051062051 -0.27741021 -0.033871468 -0.093152709 -0.18016747 -0.11250772 0.42014667 0.34809715 1.3079036 -0.42672411 -0.014428883 0.93156767 -0.050091006 0.45052439 -0.34013373 -0.85374969 0.34537634 -0.4805792
1239 -0.39379692 -0.42957863 0.18634671 -0.34255257 0.57165033 -0.14653912 0.78896016 1.2770607 -0.91655058 0.20394239 -0.068950243 -0.22101489 0.017662425 -0.13576564 0.59062892 0.013017226 0.053004909 -0.099136934 0.090655774 -0.65987831 0.22054231 0.35614392 0.16544108 0.20298174 -0.022323744 -0.99572986 0.45036525 0.32935643 0.18873775 -0.10024391 -0.16768247 -0.24052365 -0.19296132 -0.3056109 -0.074977741 0.20007257 0.31048024 0.50061148 0.37159413 0.40801859 -0.42045859 0.38468087 0.71626824 0.5592016 -0.57931268 0.20325488 0.68909311 0.71208185 -0.28248695 0.36236042 0.0027853274 0.27813384 -0.22871175 0.35344672 -0.3904798 -0.96074104 0.013176081 0.57875967 -0.18171144 0.41055354 0.63659871 0.11835048 0.087402798 0.147348 -0.33801779 -0.63827503 -0.42497009 0.345265 0.50597793 -0.14963363 0.25946218 0.1204342 0.025111781 -0.26729646 -0.42399141 0.45066661 0.81542009 -0.7399981 -0.51023149 -0.11322576 -0.022556802 0.3555848 0.32017568 -0.052520849 -0.43654567 -0.099811822 0.034213383 -0.0066783964 -0.23938634 0.16355935 0.67942488 -0.30313218 0.1395735 0.58874685 -0.0071218158 0.083729781 -0.090347923 -0.10726872 -0.40322939 -0.41899294
318 -0.23302864 -0.20731153 -0.0080116671 -0.58524013 0.1640476 -0.10549048 -0.077504098 0.70090061 0.37579548 0.06260749 0.094289206 -0.66615921 -0.090298399 -0.60991776 0.88814473 0.61841261 0.29200655 0.024427999 0.60648662 0.18775941 0.76760435 0.25723195 -0.19372597 0.2168708 0.22228105 -0.32547334 -0.11425795 0.36146948 0.0023272294 0.40260831 0.72230351 -0.11959505 -0.64019984 -0.1116796 -0.022868004 0.34264746 -0.17421174 0.37221462 0.56609875 1.2674252 0.22152866 0.10117441 0.31367841 0.54827571 0.29471204 0.26075432 0.48572692 0.17376077 -0.3778269 0.15323769 0.10706057 0.15325716 0.55280453 0.12075435 0.1467531 -0.68200523 0.39061916 0.12644021 0.33849847 0.23247734 0.32782552 -0.68976748 0.32406041 0.21932356 -0.26704428 -0.16118312 -0.33643395 0.27103829 -0.048105482 0.25629568 -0.45912501 0.00066250423 -0.081514806 0.082528144 0.4796077 -0.71370238 -0.0048263264 -0.054422021 0.16755973 0.0013159786 0.38785869 0.15515828 0.088487156 -0.29401907 -0.25311437 0.19770278 -0.19753826 0.49831149 0.54786563 0.28296125 1.1870028 0.068392597 0.055029694 0.57922775 -0.52366394 0.62417322 -0.68227178 -1.0902374 0.71608984 -0.010170286
5236 -0.28308636 -0.117531 0.43799299 -1.0089339 0.13978156 -0.22554137 -0.12746947 0.86241138 0.68700939 0.41132861 0.77015609 -0.20500465 -1.0388854 -0.099861465 0.48795378 -0.28000885 0.53361261 -0.023449156 -0.26533917 -0.36290589 -0.3772856 -1.262696 0.014208759 -0.13871834 0.56959856 -0.25990829 -0.27284327 0.23235664 -0.4523094 0.11929753 -0.8195858 0.31085289 -1.2947885 -0.75697404 0.4494347 -0.55425227 0.42010388 0.32966483 -1.0611025 -0.11738827 0.42830679 0.0098639466 0.3116003 0.083934225 0.37861234 0.67967218 0.55869859 -0.6854769 0.015619954 0.01114574 0.47952196 -0.26289675 -0.20840904 0.27303895 -0.99129182 -1.0996048 0.407819 -0.4682487 0.087766021 0.27000189 -0.84682488 -1.0998025 -0.34925184 -0.12344351 0.51994801 1.0449549 -0.9046908 -0.27755964 -0.3572669 -0.21834345 0.059961546 -0.3737081 1.0764571 -0.36851016 0.33929616 -0.27957708 -0.56256944 -0.50965691 0.61364186 0.11281424 0.1247618 -0.63295305 0.3407062 -0.050301488 -0.55010265 -0.12772037 0.32876942 0.22207615 0.79745132 0.27956244 -0.11153874 -0.32979205 -0.24661109 0.43587992 -0.42527977 -0.031070214 0.024995655 -0.2827051 0.55028254 0.01555435
3499 0.13263886 0.45410097 0.44599771 -0.28913578 0.42465028 -0.98396897 0.1859241 0.28381655 -0.58860242 -0.53771651 0.31725985 0.049398914 0.104779 -0.40860954 0.040649191 -0.22432922 0.70126879 0.18623312 0.095352285 0.0046195849 -0.22196411 0.34387606 0.66550279 0.47520101 0.52998251 -0.77445251 0.4178693 -0.027604073 -0.19179916 -0.57120889 -0.1368584 0.068381637 -1.1138209 0.32008025 -0.23356521 0.4211112 0.28386113 0.4830474 -1.0997732 0.5788514 0.021157973 -0.060061108 -0.38619411 -0.58076566 -0.037488714 0.77446789 0.81490707 -0.36388937 -0.10242529 1.0364237 0.55756146 0.42024368 0.01552729 0.76765269 0.048385721 -1.7749276 0.53269136 -0.48745462 -0.60715389 0.99335933 -0.6777994 -0.45953456 0.45885742 -0.47165051 0.38059026 -0.46562365 -0.43397668 0.4071157 0.57306516 0.77013737 0.38265353 0.10867957 0.37904456 -0.86187118 0.4573136 -0.22838633 0.33104631 -0.36107334 -0.22727364 -0.15667805 -0.38410118 0.075167723 -0.43195245 0.31882513 -0.17428216 0.69019192 -0.15770438 0.49750218 0.72574037 0.60822392 0.10531072 -0.074856132 -0.51187742 0.18651627 -0.096287072 0.18229662 -0.15258902 -0.40532148 0.88932866 0.54372478
1656 -0.58207089 -0.27979037 0.0095223011 0.05449304 0.43645179 0.30421999 -0.053972848 0.77030802 -0.85323578 0.20580021 0.66032869 -0.15514162 0.24773997 0.030589055 0.67040515 -0.50046748 0.27006331 0.1914977 -0.13493972 0.15547079 0.017127158 -0.088507131 0.31720152 0.74076819 0.04489838 -0.25192541 -0.19943608 -0.035941795 0.21499377 0.69821799 0.55207109 -0.20795701 -0.13436984 0.042109355 -0.28834507 -0.8372643 0.69338495 -0.023975192 -0.093303487 0.089092635 0.027389694 0.029543541 0.55359399 0.33359417 -0.072523057 -0.11104591 0.86187708 -0.52117461 -0.25159299 0.12939048 -0.22782852 -0.056491263 -0.56461322 0.30707517 0.076322839 -0.54920912 -0.22345546 -0.087288208 -0.60703206 1.0757747 0.24439332 0.06919983 0.37529707 0.4124538 -0.1280807 -0.01803554 -0.37897888 -0.014564396 0.25966576 -0.25359905 0.12749755 0.87597334 -0.015047923 0.40924117 0.72572893 -0.51422089 0.74675375 0.028129382 -0.15637445 -0.21991935 0.63461941 0.41626745 0.1520519 -0.3143903 0.58020771 -0.19208673 -0.078306399 -0.62173533 -0.14384593 -0.086949103 0.41080403 0.1168354 -0.42612019 0.37353015 -0.44299299 0.38673916 0.45063645 0.047875203 0.28490144 -0.20183907
7483 -0.021111444 0.12059797 -0.3117837 -0.1649344 -0.10625307 0.17391893 0.37585071 1.3596478 -0.2205127 0.70478839 -0.56393313 -0.3471562 0.045267418 -0.10745782 1.2789793 0.039823636 0.98665708 -0.65980673 0.1115159 0.32084182 -0.56162143 -0.48384163 0.25527921 0.15287291 0.058138568 -0.049834322 0.51770306 -0.066609606 0.01968592 0.041053865 0.16924015 -0.39675865 -0.69865745 -0.31006142 0.035585415 0.26435018 0.69943833 0.26508898 -0.56680018 0.29978666 0.085187986 0.0026116325 0.50245595 1.1421465 -0.36331415 -0.57036471 0.20895468 -0.32217863 -0.47665027 -0.091079928 0.019568374 0.53451729 -0.58381945 -0.29033405 0.033625398 -1.030403 0.27213103 0.24779247 -0.82661486 0.17607468 0.17912821 0.14860551 -0.4321613 -0.021155868 0.53791076 0.21072967 -0.53177029 -0.017411737 0.06898734 0.40176025 0.6053555 -0.00269039 0.52221739 -0.15106414 0.41629869 0.67361015 1.1181648 0.35656962 0.46683547 -0.18881623 0.033771947 0.43652135 0.052552279 -0.29162756 0.08262255 -0.16435222 0.23185377 -0.095434666 -0.32305175 -0.10148875 0.85280836 0.35335985 -0.51682818 0.50382191 -0.57161218 0.65036571 0.32584301 -0.71206415 0.47277042 0.67469394
3739 -0.65488362 -0.5323199 -0.42739251 0.13609827 0.2367619 0.38004288 0.13002349 0.41318572 0.035848476 0.17414926 0.24723774 -0.25288001 0.19081549 0.61179709 0.51168925 0.19692032 0.24908519 0.054289375 0.58278388 -0.55840021 0.09929724 -0.56921983 0.46363455 0.18860383 0.530725 -0.12585838 -0.20705906 0.15459123 -0.16162345 0.15935571 0.59620017 -0.25749168 -0.363985 -0.43486759 0.034045272 0.16251846 0.30494052 -0.17256546 0.31924862 0.15217245 0.37583411 -0.40851903 -0.052790098 -0.31435284 0.26143658 0.68982315 1.3905585 -0.42405489 -0.40758994 0.43421584 -0.080867931 0.087783396 -0.17570522 0.5846082 -0.1301769 -0.38313699 -0.64738214 -0.0046944302 -0.36812502 0.14339358 -0.10286725 -0.22828755 -0.57954836 0.4006553 -0.15127344 -0.25196582 -0.38280544 -0.22941048 0.2167777 -0.22269385 0.45717528 0.19131093 0.051577281 0.22996461 -0.074049354 -0.3759684 0.43725023 -0.5666824 -0.26888898 -0.28942612 0.94331437 0.37824753 -0.26418814 -0.24279335 -0.64567035 0.059257068 0.32647073 -0.54471892 -0.2256604 -0.093839407 0.98158568 -0.61670786 -0.074409664 0.47597572 0.24455389 0.24466798 0.19974239 -0.36893672 0.72091317 -0.48930636
7224 -0.091992632 -0.49081954 0.41988879 0.031557664 0.59345871 0.03771203 0.44849131 0.50924748 -0.32418194 0.10918035 0.91643441 -0.69417405 0.099521473 -0.17485096 0.63795447 0.26509428 0.42698568 0.061423961 0.42221728 -0.6060943 -0.0089173838 -0.74739283 0.12323117 0.85295069 0.062449887 -0.38120946 0.17302816 0.22401114 0.0070823221 0.11360586 0.79680806 -0.30124906 -0.55057728 -0.20156676 0.14580017 -0.097749807 0.071451917 -0.14441256 0.48123866 0.40931168 -0.14011228 0.062278986 0.20899184 -0.014461725 -0.1279337 0.50998026 0.87197161 0.06476444 -0.36905894 0.15114605 0.21345352 0.0034577504 0.70218188 0.20710123 -0.45427093 -1.1352119 -0.24459954 0.47585157 -0.30143934 0.28634289 0.73132479 -0.17098568 0.37180766 0.035613101 -0.60594243 -0.066969194 -0.086785004 -0.21609987 0.58270848 0.015291852 0.69040132 0.070487753 0.35660762 -0.044957113 -0.022436174 -0.15980074 0.52359474 -0.68973899 -0.13981533 -0.085275091 0.4659628 0.18002903 0.43856385 -0.69097936 -0.29232317 0.12604828 -0.022619398 -0.34433904 0.27456674 -0.27196294 1.0913368 -0.86091012 0.37068278 0.40010926 0.16441287 -0.15393157 0.55731404 -0.49999827 0.43443179 -0.28631449
1740 0.013989303 -0.6823324 -0.0088289632 -0.013142097 0.2379138 0.67464924 -0.104119 0.85848427 0.50118965 0.6743533 0.83954448 -0.17732812 -0.32603097 0.15083931 0.31297141 -0.45539662 0.5523237 -0.091858976 -0.10030119 0.09836062 0.29548708 0.33382228 -0.15706176 0.40866968 0.19626148 0.3333759 -0.37208688 0.013094171 -0.62344748 -0.15744501 0.15334009 -0.2343795 -0.22807206 -0.29085478 -0.011351171 0.36977363 0.753824 0.3338621 0.26039213 0.59770298 0.10352384 -0.39856282 -0.22676429 0.055952013 -0.18934695 0.14502291 0.78605831 0.19226278 -0.55315381 0.078667976 0.047438562 0.54298961 0.32545969 0.076494686 -1.1434721 -0.78515029 0.4227362 0.23034847 -0.029275194 0.6850242 -0.10233367 0.23957337 -0.50439173 -0.075371943 -0.15149021 0.11359364 -0.55439317 -0.45857239 0.30536678 0.49812102 0.21276657 -0.39372373 -0.018064408 -0.15872867 0.099367775 -0.3376838 0.56658936 -0.27844802 -0.20645179 0.049788781 0.91664994 -0.270969 0.1766047 0.6351651 -0.3452875 0.46995297 0.48166004 -0.41791236 -0.43920943 -0.80790329 0.032268129 -0.27190435 -0.11065997 0.55957556 -0.021964304 0.30037144 0.11909328 0.24136434 0.97267991 0.18267091
4066 0.0012872143 -0.3602896 -0.026126863 0.41777167 0.28821868 0.043609656 -0.007328066 0.80012149 -0.33904365 0.013476879 0.22059384 -0.30380324 -0.083239838 -0.15025206 0.75604349 0.15338136 -0.15707791 -0.77296954 0.12098128 -0.55378258 0.21331696 -0.78071356 -0.023050865 0.19833069 0.46658176 -0.54689223 0.1016001 0.31813616 0.42639369 0.11229526 0.75781322 0.10082814 -0.11050419 -0.36174241 0.43468907 -0.53805923 0.31798363 -0.28134868 0.15853058 0.27291569 0.35977715 -0.21718134 0.45696956 -0.2253525 0.11996521 0.33798027 1.1881515 -0.21424708 -0.15941027 0.2362691 -0.27679512 -0.080620036 0.32345685 0.58793861 0.20086353 -0.77010572 0.055505857 -0.039729007 -0.66056651 0.72192454 0.23350601 -0.0050920951 -0.037361931 0.39478102 -0.7358225 -0.091845021 0.0081482641 -0.9226222 0.17799987 -0.044744175 0.54152125 0.0035190524 0.37561709 -0.20153962 0.26158738 0.14727589 0.47420895 -0.38707393 -0.38389084 -0.084102802 0.93852305 0.32072967 -0.43232903 -0.097011238 -0.25151002 0.082252495 0.61454588 -0.77269846 0.0011677934 0.4867909 0.57227242 -0.010524055 -0.41719067 0.43698937 0.12960833 0.076888978 0.30256119 -0.11405122 0.61333668 -0.072652504
6085 -0.042536732 -0.30508164 -0.453574 -0.1123773 0.51647508 -0.44511703 -1.1454136 0.67946845 0.25162759 0.39603314 -0.39813215 -0.29549381 -0.50960749 0.10651192 0.3086682 0.54662359 0.53398961 -0.76446646 0.10329434 -0.93869078 -0.37159622 -0.56256551 0.49456981 -0.32399073 0.47975585 -0.12522927 -0.37715808 -0.38450867 0.13005467 -0.028539738 0.25535315 0.22539578 -1.0492786 -0.22966042 -0.033374537 0.087797135 0.14878201 -0.02882687 -0.71560436 0.35357991 0.0087474808 0.2161127 0.1160381 -0.060609031 0.71323705 0.5957796 0.56085664 -0.19724429 -0.46415126 0.71557772 0.4152261 0.57631981 -0.1741381 -0.062023927 -0.21459275 -0.96082789 -0.92067957 -0.26393476 -0.60159266 0.11067937 -0.020759689 -0.46244997 -0.082497999 -0.23596315 -0.17991902 -0.44949535 -0.21932639 0.083165869 0.37977058 0.10834556 0.62423855 0.25199968 -0.12686875 -0.1423983 0.6837374 -1.0058872 0.81788689 0.32448399 0.37482202 0.12709042 0.12531577 -0.136571 0.40514913 -0.50500625 -0.06320937 0.24271379 0.65377265 0.16084175 -0.12318401 -0.47546342 1.0669632 -0.62350768 0.59376943 0.17723873 -0.12148651 -0.44110495 0.1586221 -0.57372046 1.3008769 -0.019206921
3461 -0.1305891 0.42509168 -0.30106041 -0.19194196 0.4300617 -0.071458459 0.1785344 0.048959658 -0.1972391 0.77574337 0.48978922 -0.62571442 -0.017452685 -0.4049024 0.13376974 -0.17120828 0.23081857 -0.10977939 -0.23733871 -0.015393911 -0.11447299 -0.09091866 0.99937338 0.27756321 0.89639419 -0.3129881 0.11571461 -0.39199758 -0.1694607 -0.30478022 0.084730402 0.19855434 -0.29178822 -0.029421033 -0.122424 -0.60258186 -0.037603941 0.23408321 -0.0020805374 0.30704677 0.25974643 -0.53110933 0.73965126 -0.18858281 -0.22095329 0.61656922 0.41081733 0.33431605 -0.027523382 0.25195169 -0.41149583 0.34327331 -0.34454834 0.48710516 0.37239587 -1.188383 -0.93478215 0.40063456 0.26271778 0.97664791 -0.31891319 0.063757919 -0.28369716 0.46850508 -0.75542551 -0.62534374 -0.22610679 0.022712657 0.59565037 -0.15824758 0.024403447 0.10863739 -0.13138002 0.29625741 0.59105843 -0.31175604 1.1024909 0.12798327 0.30812332 0.74039817 -0.39420173 0.7361179 0.13936028 -0.90725136 -0.72153157 0.27143186 0.19585373 0.39326206 -0.28409868 0.62746954 0.34632114 -0.44688955 0.20441769 0.3411572 -0.41762337 1.2520658 -0.48339063 -0.69450659 0.80359304 0.39829403
920 -0.19793387 -0.6209842 -0.17338771 -1.0970539 0.22723408 0.1021038 0.56551766 -0.074040353 0.89452255 -0.62996566 0.83477128 0.31487513 -0.62622821 -0.026552405 0.32742211 -0.40972316 -0.31166556 -0.11459551 0.40634012 -0.078674927 0.23630665 -1.0291853 0.27472764 0.10989811 0.34183919 -1.0883569 0.46483457 0.086312391 0.35960495 -0.31755066 -0.28778422 -0.79403514 -0.039541595 -0.17368768 0.42637888 0.044405546 0.72697252 -0.19285826 -0.69553238 0.37096673 0.094310619 -0.069011338 -0.22071463 0.50413656 -0.081479445 0.56482649 -0.091841884 0.046666801 0.14979438 0.19922876 0.23027599 0.29971287 -0.085534059 0.25223669 -0.28029746 -1.0332496 -0.0062036598 0.026599487 -0.44016033 -0.11385606 0.56901449 -0.38842455 -0.59231973 0.40139097 -0.071973555 0.11406796 0.046733063 0.073004097 0.20765495 0.094873838 0.23063326 0.59606314 -0.3064869 -0.63137043 -0.029803036 -0.29082745 0.32418013 0.56586474 -0.35245028 0.024311069 0.11775695 0.14786983 -0.16413365 -0.46926245 -0.61130786 -0.35631457 0.87430608 0.3888976 0.20688646 0.70490974 0.36276424 -0.028930428 -0.80120003 -0.25230572 -0.6249994 0.86491287 -0.42477962 -0.56926119 0.97571158 -0.52930748
6321 0.59116668 -0.064227402 0.52841848 -0.71079642 0.28981471 0.10996925 0.14323364 0.3614991 -0.14178243 0.049977146 0.56291091 -0.24776877 -0.28808659 0.47578546 0.23942235 0.61864507 0.18208234 -0.046800423 0.4497143 0.28727657 0.5610646 -0.95614862 0.092283294 0.14383845 0.15234044 -0.57367975 0.54782802 0.040856909 -0.41730961 0.2531572 0.10547476 -0.41889349 -0.18211302 -0.047728807 0.27936631 0.028443987 0.84630203 1.0960674 -0.39524239 0.65546185 -0.21641397 -0.37280583 0.53445309 0.94296288 0.42623651 -0.11240277 -0.35643855 -1.1984682 -0.16148707 -0.30171755 -0.35508847 0.35107556 -0.20609207 0.63698113 -0.17276019 -0.52214253 -0.37614688 -0.16081525 -0.17214707 0.29831725 -0.36839715 0.21520357 0.36379272 0.056788292 -0.28066352 0.22909603 -0.22237949 -0.090833426 0.6210078 0.37219083 0.6975702 -0.054492127 0.42255792 -0.35846075 0.74517769 -0.58440048 0.66360122 0.042609494 0.19366471 -0.47818413 0.23120676 0.68052274 -0.24395823 -0.0093566021 -0.36762834 -0.23859033 0.45050675 -0.46814141 -0.51923561 0.86001903 0.99677956 0.3882077 0.038598634 -0.40010262 -0.46712679 0.96567225 0.50265336 -0.47840002 -0.0095989611 0.97394937
3023 0.13187611 -0.39868003 0.38484937 -0.19821949 0.484961 0.84765083 -0.0051000505 0.67087728 0.60639226 0.51359195 0.39759371 0.26667258 0.28192174 -0.92125773 0.46812922 -0.54916066 0.7870391 -0.38427132 -0.070944495 0.40147576 -0.41233543 0.057240564 0.10976464 0.85210282 0.64508885 0.35143954 -0.4246406 0.93435884 -0.39254576 0.14052621 0.30502337 0.19084303 -0.24532509 0.37207797 0.530182 -0.21417986 0.87295586 0.52829039 -0.18717207 0.30384213 0.8464905 -0.50130397 0.079203084 0.28437966 -0.32859397 -0.58402991 0.97864377 -0.019893546 0.028500298 0.22581048 -0.5137586 0.32830983 0.17269759 0.16200103 -0.18663366 -0.51856095 -0.062720492 0.10492046 -0.1332297 0.48107755 0.52135062 0.088086843 0.024838042 -0.22367184 -0.044586081 0.26925737 -0.30080146 -0.11549517 0.27940327 0.11146883 0.25622031 0.087928981 -0.31343031 -0.087337516 0.19476622 -0.055541418 0.35341185 -0.32720193 -0.13717894 -0.30885562 0.26878938 -0.2249801 0.55294901 -0.5224033 0.020630052 0.21985157 0.58546567 -0.51068407 -0.29851064 -0.056100354 0.24844189 -0.4367516 -0.10130944 0.57096261 -0.13937089 0.16313908 0.11927631 0.093836941 0.61529642 0.16920941
6926 0.71272832 -0.1895588 0.51936787 -0.4090566 0.025709284 -0.051089756 -0.31919438 0.24897905 0.79685223 -0.11711939 0.74874282 0.82100689 -0.092808522 -0.39231369 -0.16348217 -0.086392649 0.072461791 -0.21015622 0.080628283 -0.21705875 0.25085306 -0.026800742 0.6698125 -0.59005034 0.23964036 -0.43741664 0.50213265 0.38693884 0.32039121 -0.012542333 0.068125568 0.20253465 -0.61224437 0.2020489 0.641137 0.20192075 0.55874443 -0.33352566 -0.87735534 -0.25794527 0.47851926 0.12466972 0.75170153 0.15497096 -0.16560186 0.06162348 -0.37916997 -0.18387467 -0.73476458 0.58603168 0.98073167 0.63981622 0.089463763 0.4568207 -0.14749712 -0.9477421 0.37496638 -0.80348939 -0.24257092 -0.12268258 0.1993165 0.14740169 -0.13731991 -0.54379684 0.26847643 0.028387656 -0.69332582 -0.44532493 1.0272001 -0.10636567 0.089137219 -0.077606387 -0.4372434 -0.36471888 0.33459014 -0.11912093 0.589674 0.10990702 0.19828475 0.1009182 -0.34359676 0.32446694 -0.32159448 -0.66035247 0.049171045 0.08297506 1.5762471 0.15686987 0.62446976 -0.17231616 0.37110245 0.20645654 -0.50079519 0.5650785 0.072882824 0.11592743 0.18810152 -0.72443974 1.6515099 -0.29104298
2823 0.31143329 -0.45360777 0.19728564 -0.15729031 0.16511914 0.77169335 -0.11679556 0.6947788 0.39744702 0.53330106 0.69071764 -0.12134609 -0.44122219 0.057968382 0.50634134 -0.40451759 0.48430979 -0.29783094 -0.020183995 0.33230469 0.32186273 0.14677088 -0.30517182 0.42818666 0.15522754 0.45748228 -0.25599068 0.29621184 -0.65800172 -0.27828589 0.092833325 -0.069817878 -0.15894648 -0.070346288 0.35410708 0.14247091 0.88351762 0.25119448 0.085016392 0.46348402 0.28489268 -0.2918646 -0.16598731 -0.074652053 -0.24626514 -0.031135198 0.77062374 0.055841357 -0.44097978 0.13477044 0.044540182 0.52342844 0.33076409 0.0057549821 -1.160575 -0.64421093 0.53598571 -0.027610468 -0.12493767 0.88981539 0.18366183 0.35491681 -0.38194752 -0.22005206 -0.17125614 0.38156652 -0.50825423 -0.38197944 0.13801795 0.45218554 0.23166743 -0.24007577 -0.036506396 -0.37516874 0.12843338 -0.40329045 0.49412429 -0.16467768 -0.20039101 0.13179839 0.90116405 -0.14808013 0.35758883 0.22534359 -0.20835985 0.30422613 0.55068225 -0.39591718 -0.36428767 -0.66789675 0.0037533485 -0.20146435 0.069646344 0.4779503 -0.078254797 0.25503969 0.24016911 0.18231097 0.92401463 0.22393531
740 -0.2476162 -0.41531274 0.16562699 0.28912768 0.82900012 0.040674515 -0.056418341 0.73668724 -0.42431042 0.22054915 0.20316675 -0.055288952 0.32667416 -0.4880963 0.9326992 -0.087316737 0.27420953 -0.23574111 0.076169647 -0.13375394 0.1727002 0.32255456 0.18959075 0.28745604 0.24469538 -0.23035106 0.23638304 0.35361591 -0.13904837 0.19479495 0.078303032 -0.28381535 -0.50119185 0.19206494 0.19447817 -0.072446711 0.20094587 0.54030466 -0.3363795 0.91649598 -0.16252166 0.063170791 0.13831729 -0.10868134 -0.55947632 0.16042118 0.52154076 0.54544717 -0.31117234 0.0039529861 -0.57915342 -0.096045963 0.003783894 0.35033423 -0.305545 -0.84635931 0.22661911 0.1119504 -0.17549033 0.40781105 0.68288034 -0.17222053 0.69139391 -0.010339564 0.032740977 -0.46273163 -0.27990392 -0.013172384 0.44308692 0.27842069 0.21903767 -0.10217347 -0.26835978 -0.32881528 0.46212465 0.19400662 1.0345782 -0.22213264 -0.2776165 -0.096770391 -0.35044286 -0.13333404 0.5747571 -0.60170084 -0.13833046 -0.17618346 -0.11905395 -0.037792128 -0.22476862 0.2838271 1.2163604 -0.53183597 -0.016904095 0.43473902 -0.062669888 0.3206313 -0.10735779 -0.33464906 0.065346181 -0.11547018
7633 0.081367515 0.23251748 -0.032247901 -0.75093353 0.37422934 -0.15997286 0.16811518 0.34840971 0.34130466 1.2084584 1.1132249 0.011611508 -0.31728962 -0.15780596 0.77417809 0.085256547 0.92623073 -0.16404414 -0.24182157 -0.39378282 -0.066648327 -0.51381558 -0.12201793 0.40481082 -0.36568028 0.40731549 0.056005403 -0.28973666 -0.2795718 -0.1113118 0.17884876 -0.072785109 -0.25994971 -0.9349497 0.025613496 0.018873911 0.24185586 -0.14331014 -0.29303312 0.72332555 0.12149074 0.73412979 0.4671576 0.3014504 0.11427138 0.29283264 0.12962995 0.41175792 -0.71319634 0.19331582 0.26814529 0.65733159 -0.0607704 0.052671269 -0.45485485 -0.37224427 0.016818972 -0.32661864 0.0079970546 0.3384636 -0.028210297 -0.62158048 -0.17412935 0.027912054 0.09283419 0.34208551 -0.73513138 -0.76820242 -0.089328021 0.61025959 0.64609808 0.91450787 0.64288604 -1.5686417 0.36804351 0.3964954 0.24159741 0.21432213 0.96354443 -0.67937315 0.30447409 -0.14809936 0.29310453 -0.15334772 0.9512949 -0.38089013 0.33564711 -0.16906624 0.66128635 -0.10343797 0.71263206 -0.33781365 0.14113252 -0.11812199 -0.38586551 -0.46949384 0.13312399 -0.72470742 0.34912303 -0.43341509
2856 0.046510354 -0.29413554 0.30238056 -1.0093907 0.56421226 0.098478667 0.1596531 0.98246813 -0.55362535 0.072542325 0.77089083 0.64109409 -0.12613674 -0.079347439 -0.19399682 -0.47715846 0.30769452 0.29783586 -0.46045673 -0.35413584 0.32989234 -0.2142638 0.76903737 0.72428644 0.20518196 0.084633552 0.071922638 0.036583323 0.2696518 -0.0023310769 -0.061079226 -0.30823317 -0.19786498 -0.22143662 -0.3893176 -0.17326561 1.011762 0.32507145 0.26831594 0.43326575 -0.48777917 0.22942002 -0.026815839 0.25745764 -0.21038768 0.22091103 -0.10142867 0.54076552 -0.91037452 0.1893861 -0.12660712 0.14298679 -0.14515799 0.47204718 -1.2613944 -0.491808 -0.26864028 0.17359059 -0.51539195 0.36438403 -0.31012636 -0.10436135 -0.45753303 0.12641555 0.68946004 -0.28671086 -0.53247827 0.032197714 0.47666857 -0.52691931 0.052546486 0.076373205 -0.11057005 0.013424566 0.10991613 0.23048995 0.61033952 -0.11191628 -0.16467063 0.0016406133 0.34389302 0.47614187 0.15586835 0.4001424 -0.29011694 0.048579596 -0.083357692 -0.055763364 0.069653764 -0.13142692 0.097492903 0.82438111 -0.47801948 0.37978429 -0.47336543 0.50247812 0.095856823 -0.44528502 0.056309186 0.12064964
62 0.57292062 0.088477992 0.15150715 -0.057297077 0.0060460428 0.30495158 -0.095081061 0.58316821 -0.099842586 -0.1075985 0.25098744 -0.077987552 -0.12718014 -0.066833086 1.0775002 0.4605577 0.20308225 0.019559722 0.06716568 -0.48361501 0.26292592 -0.36349937 -0.076474801 0.86429107 0.15819234 -0.10737815 -0.16130616 0.23068482 -0.52446795 0.45579234 -0.071940407 -0.32220295 -0.40805256 0.092423975 0.11537648 -0.2579121 0.60817516 0.11442018 0.074025281 0.81379265 -0.090194672 0.092613429 0.13299622 -0.2813625 -0.030934019 0.095967449 -0.013361824 0.82551849 -0.050297271 -0.29153249 -0.37428796 0.94200176 0.13975625 0.56800634 -0.074267671 -0.94178665 -0.14624262 0.11490577 0.38590872 0.14578967 0.56803799 -0.22429211 0.66198736 0.20944144 -0.67784095 0.29493606 -0.21082321 0.010869225 0.34994891 0.54005992 -0.29754695 -0.16326818 0.58397222 -0.035164546 0.14516416 0.0054541724 0.58739567 0.036982257 -0.31541565 -0.28907034 0.65175158 -0.052126214 0.71558863 -0.75820106 -0.51638067 -0.26685503 0.15963733 0.36963403 0.073064387 0.19510226 1.2419355 -0.67588276 -0.22378588 0.30243307 -0.43602705 0.73860633 0.30325073 -0.53830206 0.80924797 0.60066104
6690 0.47308838 -0.7745024 0.58052301 -0.48735723 0.49722958 -0.39256003 -0.22285347 0.18447852 0.048798211 -0.12587284 0.16868599 0.16349335 0.14977972 -0.043409482 0.90735203 0.567159 0.20285144 0.24972358 -0.23796095 0.081802949 0.42651251 -0.72869307 0.016802888 0.127996 -0.17965087 -0.033310864 0.71001935 0.016518166 0.51784885 0.14781174 0.064010747 0.53015709 -0.28348836 -0.72727287 0.010025272 0.24648941 0.75435615 -0.63163638 -0.9166584 0.45658195 0.23056349 0.36918125 0.22611508 0.78917873 -0.10475966 0.25416768 0.20154455 0.044531953 -0.6163227 -0.26571777 0.32591337 1.3481522 0.82629311 0.47420785 0.36357677 -0.70065457 -0.3999657 -0.87342966 -0.18902317 0.61602342 -0.25777066 -0.32381159 -0.45281056 0.18328609 0.25273767 0.18928467 -0.86388135 -0.047598664 0.55841255 0.61831224 0.94597393 0.087466769 0.38525575 0.24948925 0.51009721 -0.33264247 -0.2270617 -0.14364149 -0.19557582 -0.34330082 0.82164758 -0.073946036 0.39692611 -0.34542602 0.1836611 -0.43507379 0.667849 -0.30262774 -0.34422004 -0.39947292 -0.41197944 0.15001948 -0.24101165 0.7747255 -0.54915082 0.23555049 -0.33842152 0.18668155 0.046910465 0.35282248
6235 -0.19049649 -0.31051078 0.2195293 -0.24092311 0.12949741 -0.4564133 -0.40537357 0.19109106 0.33930373 0.21977909 1.0810791 -0.014793477 -0.78441727 -0.20453823 0.83576846 -0.24014115 -0.3536064 -0.20106724 -0.21557912 0.33898914 0.37431654 -0.13940473 -0.22901833 0.31647477 0.39432296 -0.56835473 0.2426134 0.89549488 0.47405085 -0.57004917 -0.59388167 -0.071113877 -0.83401495 -0.55076826 0.19662204 0.4827694 -0.040100295 0.4256359 0.37688327 0.22790261 0.29530624 0.58893067 0.31629354 0.70827562 0.28594825 0.33939698 0.098000862 -0.31085923 -0.45077807 -0.14900966 -0.10955525 0.30901515 -0.64537305 0.72346532 -0.096191972 -1.3235717 -0.24990417 -0.10796573 -0.11740123 0.99545652 0.037445493 0.084645808 -0.45313373 0.27046877 -0.234625 0.82629359 -0.91801804 -0.66113961 0.22052082 0.22548406 0.88346905 0.3575438 0.51652944 0.066393957 1.2200232 0.056354918 0.11350654 -0.18423763 0.12578571 -0.055254668 -0.62992108 0.48305005 -0.37995622 -0.36207896 0.28136441 0.30179736 0.32584989 0.32328033 0.92061967 0.34420601 0.56782341 -0.14403479 -0.29521382 -0.49598393 0.43168873 -0.084806964 0.57923204 -0.61291558 0.12038347 0.1502374
4906 0.20580171 -0.82064927 0.59722686 0.044504683 -0.14554796 0.27410388 0.5619716 0.71252829 -0.48424688 0.030999217 -0.1608607 -0.30731302 -0.52254224 0.68386567 0.57284367 0.2365531 0.043238986 -0.08598014 -0.094725959 0.22740568 0.14636837 -0.51322997 -0.22101904 0.72201705 0.71269721 -0.30502969 -0.35281819 -0.30227748 -0.20021893 0.41679031 0.47268543 -0.53650653 0.38491186 -1.0357831 0.0875424 0.17100054 -0.06267368 0.020294469 0.089488037 0.62482971 0.50777084 0.3202976 0.51031607 -0.24480811 -0.13568006 -0.023896415 0.83449364 -0.024069553 0.28941435 -0.16835345 0.34673405 0.99972397 -0.75279719 0.66423428 -0.93573558 -0.25500301 -0.30154118 -0.28786179 -0.92702168 0.15198953 -0.80407447 -0.091469906 -0.022828108 -0.20840797 0.52093977 -0.17176691 -0.1779021 0.78679067 1.0085522 0.48124301 0.035230812 0.97123373 0.19373377 0.12925667 0.72791362 -0.32805192 0.074585013 0.41225013 -0.17903292 0.10807054 0.094771639 0.76732606 0.094400212 -0.6849463 -0.66378355 0.34842291 1.0391072 -0.21540816 0.014652031 -0.47142598 1.0038899 -0.64182812 -0.39450946 0.22783181 -0.61738515 0.44373748 -0.060201701 -0.037881419 0.55468106 -0.23156752
3377 -0.39263287 -0.42884105 0.085372873 -0.35096535 -0.48737797 0.42809457 -0.035345159 1.2074243 0.73668379 -0.050890077 0.78486013 -0.11297436 0.16779929 0.044606291 0.18856259 -0.84678185 -0.16368723 0.75775748 -0.51721704 -0.42007762 -0.36826581 0.40278277 0.5472241 0.48409671 0.83337301 -0.29672509 -0.60031348 -0.15503408 -0.35482037 -0.17308907 -0.11127731 0.15993245 -0.21443011 -0.28992641 -0.17930223 0.67418897 0.65114945 0.18854539 -0.31787589 0.31916317 0.18514021 0.49853811 0.20346119 0.36569154 0.40355992 0.63051063 0.30028927 0.042033851 0.19955941 0.2175923 0.19125897 0.76742768 -0.33460847 0.46062508 0.14462762 -0.51328218 -0.52873653 0.4927327 -0.12988451 0.00010672273 -0.16677552 -0.27649492 0.016478097 0.81283098 0.16565077 -0.20312902 -0.2111434 -0.19544598 0.48038009 0.52101135 0.27683547 0.5669111 0.22401933 0.52919579 -0.068937771 -0.77889979 0.42304069 0.37580493 0.44955671 0.091070116 0.014476772 -0.38776797 -0.40161103 0.57728094 -0.37054312 -0.18857212 0.23999965 0.28326106 0.020864239 0.45853081 0.2787576 -0.5163157 -0.57593364 -0.075057313 -0.39267021 0.14409208 -0.25853249 -0.4673346 0.24102159 -0.41352612
1071 -0.10909833 -0.5145604 0.31112331 0.16998465 0.29130498 0.067339532 -0.61363226 0.32073784 -0.23828368 0.49830079 -0.13574556 0.058424227 -0.38720298 -0.14285648 0.24216823 -0.25342128 0.55984586 -0.40949845 -0.1252422 -0.20712632 -0.1595879 0.1243645 0.25542021 -0.12194818 0.72416592 -0.6026814 -0.47717518 -0.4207038 0.28611681 -0.48994428 -0.10813292 -0.26654467 -1.3201954 -0.44502202 -0.49709162 -0.050741512 0.72981763 0.39991003 -0.80703348 0.39546549 0.5226016 0.41521603 0.25752488 0.060915079 -0.69793022 0.53665501 0.31369278 -0.61489618 0.083968706 0.010434407 0.66952288 0.16223346 0.22761087 0.61166495 -1.0079113 -0.47510499 -0.39338377 -0.11567035 -0.12900795 0.16502209 0.29201853 0.015419959 0.22739466 -0.29418549 -0.81280357 0.026071025 0.3060182 -0.25315735 -0.07690347 0.67865151 -0.20753053 0.64200217 -0.039545376 -0.017051177 0.72702086 -0.31799299 0.94401616 0.64826846 -0.075519957 0.15398151 0.16025169 0.10489802 0.24547049 -0.29744774 -0.097479381 -0.33344224 0.13461028 -0.39822906 -0.34810865 -0.18460263 0.40516278 -0.017546987 -0.68389171 0.19261298 -0.15315636 0.17862144 -0.55438876 -0.45286047 0.36134368 0.12694493
1964 -0.30350703 -0.57081419 -0.17190911 0.13456011 0.075378254 0.32919651 0.30557778 0.88982892 0.53346342 0.61176443 0.39935818 -0.26181582 -0.049496107 -0.067107506 0.10806676 -0.33454508 0.22123945 -0.16543454 0.033960126 -0.53646284 0.27770922 0.46932942 0.10774758 0.0068650022 0.12722667 -0.6303094 0.27256468 -0.66849566 -0.12773748 0.29519594 0.71683949 0.18680142 -0.43661794 -0.59439874 -0.33732599 0.087761797 0.47095445 0.12233495 0.21746862 0.9154284 0.13842501 -0.49767315 0.22078021 0.59484029 -0.43739739 0.43882734 0.91512358 0.19356617 -0.038687117 -0.1057815 -0.012428219 0.59365463 -0.14048934 0.2107863 -0.44403532 -0.89923865 0.067741022 0.53490436 -0.26666719 0.32099521 -0.25715929 -0.12368874 -0.38918048 -0.030117795 -0.37758106 -0.31335425 -0.63376051 -0.4490923 0.24506728 0.48574838 0.06430085 0.021148868 0.082789429 0.3343398 -0.0075571849 -0.0096036997 0.44557592 -0.41491133 -0.21540299 -0.044336259 0.24593616 -0.47822216 -0.029056264 0.72706676 -0.31289664 0.25693017 0.16451521 -0.16079538 0.057043318 -0.31128791 0.071662202 -0.86561406 -0.47722325 0.33237258 0.14412105 0.12014657 -0.061722174 -0.069673605 0.40275443 -0.16716501
1420 -0.56179267 -0.1366303 0.649517 -0.41410589 0.10765246 -0.21773872 -0.56888157 0.45721558 0.46378767 -0.11907122 0.37852582 -0.05629012 -0.30050382 0.083313666 0.69261348 -0.19268121 -0.10360568 -0.85891747 -0.29326874 -0.23857158 0.22457899 -0.31963754 0.14625734 0.66003102 0.24476475 -0.26355785 0.070384718 0.71153241 0.3957721 0.19599353 0.030140188 -0.050688181 -0.25949344 -0.41364169 -0.11594594 0.47483248 0.043368056 0.16095412 0.13290629 0.60481769 0.32958215 -0.59035009 -0.25432041 -0.078410976 0.35302511 0.71853608 0.40801242 -0.19103079 -0.8735671 -0.26153317 0.13483652 -0.48252243 -0.46229923 0.41895229 -0.14054047 -0.48636669 0.36734635 0.13829714 -0.69727808 0.42533103 0.013784349 -0.19802354 0.25006503 0.022962267 0.23042423 -0.060513072 -0.48139989 -0.15779948 0.23300445 -0.37939391 0.18955681 0.23783733 0.10527511 0.067452088 -0.21133676 -0.52462912 0.412882 -0.35182178 0.015467372 0.36450768 0.55915624 0.17457271 -0.25562656 -0.46937591 0.029000878 0.86946273 0.48794091 -0.5181362 -0.21279716 0.228144 0.73018849 0.28672165 0.14100246 0.3860077 0.014565038 0.19870789 0.082900189 -0.3282809 0.040710356 0.25217521
6645 0.60075253 -0.29369959 0.068147354 -0.50763869 -0.42647943 0.48968181 -0.10537782 0.52956492 0.63994741 0.1920689 0.79015434 -0.22757238 -0.21503896 0.18423936 0.45108122 -0.37135908 0.42605269 -0.26012671 -0.0063983067 0.23496364 0.17373325 -0.24332699 -0.68378252 0.72595334 0.17768136 0.70881474 0.3755849 -0.28117651 -0.74764568 -0.48558518 0.09630233 0.07907033 -0.37534887 -0.51521236 0.55548465 -0.21131541 0.72427028 0.046816349 -0.50487089 0.3907997 0.62080777 0.21605393 0.38961256 -0.17168547 -0.091876492 -0.047704235 0.18771309 -0.43952304 -0.34561005 -0.0018317554 0.52302068 0.51267987 -0.13473126 -0.12794347 -1.2455215 -0.11401417 0.21414874 -0.47227445 -0.0029338328 0.51536292 0.052599549 0.13136566 -0.26815301 -0.1020643 -0.035824962 0.76291865 -0.76845616 -0.31683454 0.50395888 0.96775645 0.35409933 -0.063245751 0.70158952 -0.80831975 0.72239798 -0.59894067 0.11587868 -0.10257562 -0.32335195 0.16366376 0.8338353 -0.19094586 0.31038308 -0.010493885 0.022866862 0.39826879 0.3514924 -0.27341598 0.014155833 -0.41216671 0.16574116 -0.27197537 0.34103307 0.52405018 -0.16723628 0.14757241 0.087793566 -0.50898415 0.91994095 0.23348127
1108 -0.093632884 -0.47926226 0.045799594 -0.072414853 0.41531286 0.19973719 0.47130468 0.33721882 0.7083987 -0.041429404 -0.22227807 0.054200128 0.28897202 -0.1076 0.62945455 -0.72932023 -0.04399224 -0.20290899 0.0092903133 -0.27658302 -0.24832116 0.15411872 -0.20330521 0.55426764 0.34251964 -0.8018688 -0.0030184006 -0.025079597 0.0061830706 0.54213691 0.79294771 0.2870608 0.18875851 0.30550411 -0.17442089 -0.42791271 -0.026492072 -0.13631433 -0.47520798 0.19632398 0.34318841 0.18788642 0.33358225 0.35809883 -0.24738641 1.0353202 0.53478223 -0.16064449 -0.068059698 -0.045060746 0.011063617 0.46472916 -0.071830727 0.4123227 -0.047473859 -0.14228895 0.11548069 0.51202887 -0.47186419 0.45133904 0.3298417 0.14713474 0.51625717 0.33676833 -0.49512041 -0.16207631 -0.70324242 0.21423423 -0.089711294 0.077493876 0.33154878 0.056338187 0.15122108 0.11256362 0.022728747 -0.19690154 0.74306232 -0.029274043 0.27749321 0.43853584 0.072823547 -0.10227028 -0.131917 -0.46722177 0.13745582 0.002909048 0.60688192 0.041684046 0.20052978 -0.6510011 0.91605794 -0.17142308 0.13637477 0.049112566 -0.23907146 0.72877693 -0.076857708 0.027345944 0.35260829 -0.71068722
3615 -0.79194397 -0.18979773 0.66770566 -0.43108693 -0.53499848 -0.32642055 -0.25196433 0.37098333 -0.39493072 0.22401685 0.53028709 -0.25615758 0.50435406 -0.8421945 0.76936042 -0.035380837 0.31421626 -0.84100872 -0.2299235 -0.18523613 -0.31805658 0.32280049 0.62327969 0.38413036 0.13919637 -0.12353512 -0.3094433 0.25002709 -0.34967878 -0.92556852 0.57415402 0.11359953 0.12888105 -0.12828518 0.25556174 -0.180353 0.18508695 -0.11883269 -0.45036012 -0.48000365 0.094082832 0.36940122 0.62193686 -0.32005984 0.43886974 0.97993696 0.64441484 -0.11591687 -0.45474294 0.16707948 -0.34908724 0.78363788 0.25288433 0.44023532 -0.92234701 -0.67075688 -0.8859728 -0.44636983 0.1861289 0.22098558 -0.36072469 -0.127331 -0.15621759 0.24284011 -0.076979779 0.018241283 -0.12082718 0.4472881 0.06436529 0.58526701 -0.05099076 0.54227626 0.48593882 -0.74181134 -0.45631042 -0.53815043 0.2937949 -0.32002106 0.33955753 -0.76375037 0.30851454 0.77892339 0.35951307 0.19432937 -0.089625165 0.057592344 0.86284733 0.75860333 0.27445993 0.95020169 0.76086223 -0.22580168 -0.52607149 -0.85878009 -0.86251378 0.56559116 0.21913232 -0.97819793 0.57959485 -0.038912028
6211 0.58289725 -0.63873315 0.63650113 -0.70039326 -0.18308872 -0.46247143 -0.14286447 0.24720247 -0.53020632 0.060721081 0.20571548 0.088496424 -0.47944102 -0.24742047 -0.15591733 0.80777901 0.29918805 -0.055106089 -0.13506714 -0.74478787 0.11455902 -0.52313769 0.042703584 0.45624229 -0.091313176 0.11947121 -0.16105647 0.40013635 -0.090672523 0.2119434 0.24291052 0.60758889 -0.11243924 0.35519302 0.080264315 0.44508427 0.400971 0.47772986 -0.15155174 0.20808943 -0.24181472 -0.29119194 0.7704944 0.27045843 0.59102345 0.48594534 -0.071250148 -0.32169414 -0.38699302 0.59918362 0.73162478 0.63254595 0.90255219 -0.30756634 -0.047252029 -1.0383559 -0.36600617 -0.5423699 0.18568021 0.042560309 0.15297049 0.045659851 0.16269913 0.11213774 -0.33056799 0.7850827 -0.39128107 -0.95711565 0.46960929 0.18937436 1.0511038 -0.43866062 0.043438483 -1.045131 0.97840226 0.40297312 -0.17074689 0.28565314 0.28765807 -0.019121522 -0.0016694672 -0.33297309 0.62411338 -0.2501581 0.082006812 0.75554985 0.37546912 0.72266883 0.46832898 0.2951909 0.74804026 -0.36162451 -0.4701241 0.10578001 -0.43821248 -0.46490014 -0.20747814 0.10193318 0.8942619 0.0064944155
1663 -0.15603076 -0.18405935 0.049977124 -0.45516586 0.68296087 -0.36592177 0.1094097 0.60662931 -0.44717571 0.086491972 0.65356982 0.15871936 -0.0075324168 -0.43776876 -0.030965086 -0.24352518 -0.2147699 0.13326283 0.22258742 -0.14197682 -0.014741454 0.091310292 0.11804219 0.44571584 -0.12459578 -0.22870617 -0.65069056 0.5036974 -0.45770645 -0.12451751 0.24641107 -0.5601517 -0.62392712 -0.24568583 -0.030772276 0.17104971 -0.39995599 0.49201074 -0.31523952 0.25657436 0.16207342 -0.33719063 0.12328617 0.13786513 -0.12843712 0.86372846 -0.046943642 0.23543032 0.045397304 0.6061281 0.65466464 -0.12474027 0.38760561 0.57478988 -0.7030369 0.067663394 -0.55326605 0.61911744 0.10785017 -0.34765294 0.015436075 -0.39836064 -0.20193745 -0.0013290241 0.43876025 -0.2705006 -0.36700758 -0.36291498 0.71178913 -0.055335209 0.10529318 0.42080206 -0.16535802 0.015772564 0.6561265 -0.079865955 -0.24882187 -0.41404775 -0.26276305 0.087510221 -0.36490399 0.59759742 -0.096996896 -0.51068372 -0.61364692 0.6816408 0.10712883 0.15926778 0.60990816 -0.090401076 0.074878648 0.056228343 -0.036000401 0.59935713 -0.58200741 0.22918271 -0.15083463 -0.507348 0.59179771 -0.46608528
1519 -0.58570832 -0.58728558 -0.12195668 -0.03381259 0.049361024 -0.25998056 0.16198869 0.27658075 0.11357109 0.2986185 0.70822698 -0.11024495 0.16088842 0.020329837 0.40163958 -0.62155122 0.048401181 0.40451065 0.042180523 -0.82039648 -0.33588156 0.67324489 0.96910006 0.24252592 0.37886742 -0.17881845 -0.1953824 -0.28758216 -0.38904941 -0.19629341 0.25702205 -0.23515411 -0.45091525 -0.5114308 -0.40097162 0.23447168 0.42564961 0.51353467 0.32423517 0.31483561 -0.13355547 -0.08497417 0.16296172 0.13495171 0.49971321 0.51512128 0.80286157 0.48008087 -0.25680631 0.1085492 0.2624945 0.59336168 -0.099686563 0.33364174 0.0052264938 -0.70216912 -0.2763257 0.073555551 -0.24431024 -0.49141699 -0.079333164 0.042834278 -0.73493135 0.25662285 -0.30971682 -0.40769678 -0.38584206 0.039099533 0.671018 0.22837721 -0.25690544 -0.16707721 0.22011012 0.60463834 0.29700512 -0.33048537 0.51039314 -0.024745716 0.13770449 0.017254924 0.33848241 -0.22794104 -0.11377807 0.72121328 -0.64634293 0.17013454 0.096830778 0.045772299 -0.018985596 0.36427593 0.41334987 -0.585908 -0.69241494 -0.022954799 0.11174375 0.38977751 0.033560038 -0.23895161 0.49393323 -0.3614206
7411 -0.21794392 -0.26055852 0.60962641 -0.53632289 0.61845928 -0.72823554 0.0021159307 0.04410838 -0.7000888 0.60561305 0.48907313 -0.39705709 0.28371435 -0.27253678 -0.32935131 0.46099359 0.3820869 0.50350046 -0.31831193 0.265641 -0.045255229 -0.47842452 1.0331427 0.52462381 -0.034488771 -0.27015266 -0.42925081 0.15805593 0.31527132 0.32829916 0.05860189 -0.24971065 -0.11510089 -0.19228329 -0.29996249 0.20352015 0.43063676 0.30236924 -0.019546933 -0.042677015 0.12711303 0.54181892 0.48599628 0.24426812 -0.25366136 0.93231642 -0.36954734 -0.10355557 0.18123052 0.78512633 -0.14974248 0.54071671 0.35596269 0.21337141 -0.58493102 -0.64081663 -0.27138147 0.27835098 -0.025627745 0.76994568 0.39158687 -0.070010833 0.14841276 0.63651353 -0.57911921 0.21780612 -0.054939605 0.31573585 1.1409098 -0.24896276 1.1215472 -0.29060668 0.10560431 -0.4443087 0.76147854 0.39686856 0.60301179 -0.43646225 0.019987864 0.12212086 0.18674342 0.41042247 0.24430035 -0.78848004 -0.36412129 0.48527652 0.33566901 -0.035161953 -0.27187377 0.058965284 0.48647532 0.4975023 0.35074005 0.23745124 -0.10564446 0.43582109 0.67326546 0.071384169 0.48997974 0.14427806
3000 -0.84765637 -0.17777763 -0.14812821 -0.21049806 0.55598438 0.49738029 -0.20268437 0.74246889 -0.67169189 -0.19736192 0.877554 0.092045464 -0.16289753 -0.47257921 0.051986147 -0.22635423 0.011890343 -0.17995277 -0.67240518 -0.15798239 0.37524179 -0.86273348 0.19686967 0.52547914 0.40815234 -0.034218803 0.38771707 -0.33643499 -0.33663785 0.21354266 0.65625137 0.094483204 -0.76722664 -0.12197756 0.51781279 0.20057446 -0.067092694 -0.19875726 0.25187889 0.097767144 0.55665243 -0.17637603 -0.15762241 0.24676554 0.24436848 0.87620842 0.63848984 0.38461888 -0.75317347 -0.19179149 0.52675384 0.4562574 -0.14215234 0.79258758 -0.29589334 -0.95295519 -0.14128838 -0.17579058 -0.27281809 0.26968199 -0.027571129 -0.68461949 0.26436239 0.24315254 -0.055438839 -0.054448977 0.0060321684 -0.064867899 0.5835548 -0.6208775 0.28720185 0.41077328 0.1361569 -0.23664936 0.88986635 -0.25299954 0.22694623 0.093414761 -0.63279074 0.57246453 0.33120859 0.31551525 0.12075156 -0.42588079 0.47035134 -0.73809785 -0.13394271 0.016452773 -0.43471715 0.032574445 0.047583986 -0.14076541 -0.89876759 0.14322276 -0.51931298 0.46579531 -0.28706646 0.35819754 0.72468698 0.41024849
1381 -0.15686385 -0.26350695 -0.39073959 -0.50263345 0.65235597 -0.31718373 0.27121013 0.75160521 -0.015848208 0.1548927 0.043868702 0.31691396 0.10975171 -0.43431363 -0.26244399 -1.0493268 -0.26024908 -0.40437639 -0.31623358 -0.26926672 -0.037163038 -0.29843155 -0.26333186 0.22483292 0.6670717 0.069401786 -0.54277694 -0.14415742 -0.16028571 0.18137555 -0.24180919 -0.48720863 -0.46366572 -0.22753979 -0.20018041 0.39790517 0.49768752 0.46673813 -0.54312074 -0.26244551 -0.38765323 -0.032072686 -0.068440937 1.0700407 -0.23690404 1.3690028 0.39263752 -0.32374874 0.47705254 0.37886751 0.016365627 0.10385787 0.5040729 0.97843611 -0.15890716 -0.083037876 0.15049019 -0.06596458 -0.028628113 0.29093724 0.20628431 -0.23763563 0.034396652 0.067397147 -0.064275131 -0.11299881 -0.42490306 -0.5329532 -0.0032317927 -0.078405797 0.51814198 0.32023507 0.65428078 -0.64882696 0.47357193 -0.87599492 -0.071602449 -0.39219189 0.012625154 -0.33996528 -0.032855589 0.5365535 -0.35369343 -0.65191287 -0.43207011 -0.018937714 0.36374176 -0.23754586 0.58828294 0.078568846 -0.052672982 0.18674065 0.05143125 0.49286786 0.32774946 -0.39096305 -0.20054235 -0.46335942 0.37991998 -0.27182424
4325 0.17934337 -0.30731347 0.3462595 -0.13487794 -0.21319799 -0.5920077 -0.031738877 -0.21172233 -0.40438375 0.73327357 -0.32045177 -0.85850197 -0.19139141 0.35202855 0.4103407 -0.3686592 0.41209874 0.14151463 -0.4931711 -0.37715387 0.52199876 -1.0215672 -0.22803093 -0.25460973 0.42177662 0.24366274 0.3270629 0.34634507 0.22987448 0.31686106 0.13427442 0.089510709 -0.70633787 -0.2675404 -0.020232711 -0.78191686 0.94341028 -0.55180866 -0.12406059 0.84740669 -0.063099653 0.45442197 1.1099516 0.84275806 0.34729484 0.12124459 0.40271094 -0.56145328 -1.0582484 0.18666698 0.26469809 1.2168754 0.34003964 0.42679557 -0.2522625 -0.83386278 0.14173526 -0.70443243 -0.11296226 -0.12075143 -0.093449861 0.14775865 0.43327707 0.49121976 0.41202623 -0.050134718 -0.26667374 -0.20670094 0.23575303 0.31399417 0.12541673 -0.35318995 0.54016024 -0.661677 0.22658202 0.30651167 0.065796599 -0.44997263 0.84440422 -0.39358014 0.34245461 0.23746347 -0.0037729184 -0.076728202 0.1861365 0.12717094 0.34881344 -0.56230062 0.080633081 0.214067 0.56552535 0.23009799 -0.059627406 -0.024965929 0.040307954 0.17141688 0.27094689 -0.37249973 1.1679304 -0.50603724
153 -0.060686164 -0.56180364 0.16880853 -0.064032853 -0.43576446 -0.36005294 0.57783169 0.51464331 -0.186417 -0.48931757 -0.163592 -0.041702867 0.10468145 0.16282941 0.11192871 -0.1499785 -0.47308904 -0.065829642 -0.21036549 0.26853704 0.25627255 -0.35414299 0.42718303 0.22145912 0.99683052 -0.63754952 0.064601593 -0.12254298 0.1672111 -0.52377921 -0.2642599 -0.12968069 -0.51688069 -0.64443177 -0.065612897 0.14323255 0.32366043 0.37241381 -0.58645236 0.54336089 0.30629501 0.61119807 0.46483415 -0.090375148 -0.14327095 -0.29478958 0.21220399 0.1675403 0.43314412 -0.10724556 0.96465153 0.48219132 -0.26338571 0.63873863 -0.23319763 -0.027458245 -0.29776987 0.37021607 0.85828036 0.674483 0.3426182 0.12740786 0.54363447 0.71332097 0.66493446 -0.090495177 -0.36230445 -0.16539538 -0.24267605 0.069761984 0.43777645 -0.058358572 0.48022875 -0.43194622 -0.0057425294 -0.16039157 0.42029113 -0.0064146263 -0.20651786 -0.32511747 0.68659973 0.33371922 0.22957313 0.42972937 -0.33326289 0.14364342 -0.077985629 -0.1603511 0.36952421 -0.32433903 0.61160409 -0.10293839 -0.041728113 0.57173806 0.079288393 -0.031046437 -0.12162615 -0.74762231 1.0672944 0.2134413
6730 -0.22739708 -0.19690441 -0.47060147 -0.093933292 0.23034681 -0.2700513 0.26815605 0.33402416 -0.21818775 -0.17187414 0.70383376 -0.25799453 0.64316422 -0.59097153 0.13153444 -0.3293466 0.36326662 -0.0079458375 -0.35696843 -0.37843186 -0.17739184 0.029954653 -0.030366899 0.16632336 -0.084089428 0.75241905 -0.1274647 0.4071565 0.29141751 0.1741727 -0.49828687 -0.39014518 -1.3086985 -0.21234077 0.030634802 0.071804009 0.53641766 0.33939052 -1.0471041 0.03382137 -0.46793404 0.086715564 0.24932988 0.60121185 -0.11813344 0.22563228 0.12135945 0.052776948 -0.49027798 -0.18545762 0.64596653 0.71250522 0.40732658 -0.40034333 -0.44777426 -1.0489715 0.29126355 -0.38988733 -0.91969579 -0.3759467 0.41174072 -0.17347601 0.27363381 0.47108176 0.27351674 -0.11425605 -0.16416256 -0.39417744 0.6011191 0.56360155 0.44888172 -0.51096416 0.68535006 0.058867987 0.91018176 0.10879113 0.20685616 -0.45676586 -0.26393029 0.24017604 0.51831585 -0.47561279 -0.17726071 0.46692151 -0.51925284 0.26325485 0.41775486 -0.32367599 -0.29134464 0.058363646 0.54626781 0.62955314 -0.18356586 -0.14569987 -0.62207115 0.5049414 0.05529277 -0.722516 0.54289043 -0.63244951
3998 0.18129794 0.00094817684 0.18403555 -0.31796411 -0.27927423 0.44126073 -0.17903724 0.015476521 0.12462655 0.014601291 0.076276347 0.023729101 -0.36402944 -0.20369913 0.6943993 0.13523468 0.15998292 -0.72439343 -0.31510183 -0.2037795 0.094057813 -0.55319625 -0.21576919 0.18167077 0.85435778 -0.22363977 -0.11715065 -0.16267808 -0.69175339 0.40974894 0.023524025 -0.29277629 -0.20638256 -0.045362156 -0.22961134 -0.59424579 0.93109268 0.03222809 -0.61171842 0.77125525 0.13417189 0.028711077 0.35169125 -0.092554033 -0.051295549 0.41646895 -0.26907986 0.026757957 0.039508831 -0.10162532 0.26016891 0.64833009 0.19012785 0.55300909 -0.20066634 -0.85212409 -0.31015614 -0.10352702 0.44337109 0.12926592 -0.074355625 -0.68903655 0.16981812 -0.28718641 -0.34815836 0.17855051 -0.086919785 -0.15733127 0.18670148 0.6863364 -0.50309622 0.27797601 0.31778234 -0.55780816 0.76933438 -0.72758842 0.33700675 0.32833901 -0.36694279 -0.39905271 -0.60000831 0.22989438 0.32893986 -0.22695225 -0.40650928 -0.21127777 0.043498442 0.19627537 -0.14432603 -0.12398846 0.50534588 0.12568544 -0.073617585 0.2860952 -0.12130813 0.63969386 -0.60447389 -0.47720292 0.59359324 0.46532395
7063 -0.29803112 -0.28453258 0.67046994 -0.58334458 -0.26024112 0.10039283 0.6649093 0.74976748 -0.21871154 -0.097472452 0.57646984 0.74310541 -0.45231256 -0.15349203 0.020503784 -0.17862731 0.45040253 0.16793351 -0.61573845 -0.59940881 0.31367305 -0.86038202 0.20630465 0.65514624 0.12819818 -0.2478631 0.49712801 -0.18927449 -0.16452414 0.5557847 0.15225305 -0.36355516 -0.60293227 0.49554852 0.13705099 0.54102528 0.30226529 0.85386944 -0.4937017 0.10999656 0.68250686 -0.2406224 0.41912833 0.48524824 0.44915491 -0.0037967886 0.49975049 -0.31526101 0.17187437 0.49610618 -0.56482583 0.49235371 0.29308391 0.077552639 -0.15837394 -0.74774706 0.53173995 0.39007914 0.13019803 -0.096803062 0.015939577 -0.094198182 0.61924744 0.18102241 -0.2476397 -0.91495603 0.31293005 -0.77443135 0.60416317 0.19675227 0.49399793 0.32543153 0.63911682 -0.84521592 0.76865578 0.29277575 -0.060542926 0.13408594 -0.22929122 -0.15820834 0.4227165 0.068867289 0.064854853 -0.0023955717 -0.19527873 0.40697196 0.86651856 0.33769313 0.77624077 0.87783891 0.3740387 -0.59807485 0.34499571 0.17512901 -0.223258 0.03380844 -0.23581542 -0.28492036 -0.04704516 -0.37869224
5354 -0.41770723 -0.29971364 0.45492253 -0.62043488 -0.56855875 0.43150356 0.48829609 0.22988506 -0.41939911 1.0118123 0.064305544 -0.93904907 -0.41394323 0.30561227 0.228789 -0.36224231 0.46946704 0.33371484 -0.051314164 0.17424317 0.23981978 -0.32218847 -0.05252165 0.6245451 0.39101887 -0.1341258 0.15278894 0.03040117 0.12493351 -0.058293857 0.2300816 0.041959882 -0.28716186 0.11463828 0.60326707 -0.15405482 0.051646449 0.50845599 -0.45811191 0.34119898 0.23795152 0.50122774 -0.47679728 0.27113461 0.45649454 0.91310626 0.63136315 -0.36757001 -0.29083177 -0.023772176 0.75143784 0.58792931 -0.19149013 0.067115545 -0.059077419 -0.243604 0.42755419 0.13857357 -0.3850894 0.56756014 -0.22728585 0.43927598 0.80269212 0.31724179 0.43706372 0.74465191 0.40908971 -0.032895502 0.82009614 0.22205061 0.45627844 0.26104128 -0.46305403 -0.39581713 0.50224841 -0.35151681 -0.058706228 -0.80109763 0.48787439 0.63931239 0.30046916 0.053734742 0.74670422 -0.22685474 -0.4030748 0.31626379 0.23913597 0.12110288 0.16149099 0.21905115 0.9389537 0.011087568 -0.68428838 -0.81220704 -0.71383625 0.64868426 0.01215151 -0.70370531 0.64654577 0.15508752
4636 -0.33066472 0.069644257 0.068235315 0.033301719 -0.54829282 -0.55171585 0.034923621 0.46605396 0.039313566 0.5868538 0.32531771 0.61420947 0.0051761493 -0.28951401 0.74724072 -0.26937151 -0.12836181 -0.051670033 -0.97570437 0.39426574 0.445463 -0.18052112 0.019035095 0.43032324 0.15796801 -0.15660925 0.55296874 0.38852522 0.18429379 0.28409544 -0.16357464 -0.15129524 -0.5850265 -0.57359004 -0.42072538 0.22559986 0.15472168 -0.18783617 0.048599888 0.54825068 0.068784751 0.5138765 -0.15511134 0.34982917 0.61701858 -0.02052932 0.18151645 -0.31778476 -0.47924006 0.3250052 0.25972587 0.50649816 -0.23192804 0.45251206 -0.2048281 -0.45522109 -0.38834473 0.35237199 -0.23622884 0.84434879 -0.67843944 -0.52035272 0.51287329 -0.49127281 0.28696609 0.78120846 -0.39923224 -0.52464855 1.176071 0.13800679 0.6554569 0.50044703 0.48080534 -0.1764912 0.32524461 0.009256714 0.74172354 0.50689757 -0.50840539 -0.066178285 0.47963187 0.68254095 -0.067304656 0.5070172 0.29240993 -0.26834449 0.14512578 -0.84373617 0.46591809 -0.30868945 0.4189769 0.77613282 0.068079248 0.24938095 -0.41359288 0.61861628 -0.25082389 -0.85261691 0.45258489 0.22092795
4146 0.72387725 0.26989874 0.27813357 -0.11032185 -0.23691472 0.2996645 -0.30879721 0.49951866 0.12392308 0.46675786 0.29062057 -0.069708906 -0.16212022 0.11202146 1.1369361 0.45510742 0.27975351 0.17456172 0.36853957 -0.56357151 0.2950471 -0.13657421 0.089421287 1.0051358 0.49403232 -0.21614826 -0.33610225 -0.093780555 -0.14003578 -0.11712018 -0.56813306 -0.098602831 -0.37293968 -0.14057414 -0.15706955 -0.30423179 0.65697712 -0.082593843 -0.26016861 0.10494971 0.057688665 0.4603661 0.0023745613 0.058696881 -0.23385523 0.028529279 -0.1876795 1.085155 0.01716378 -0.1909426 -0.16437714 1.3329401 -0.30606708 0.63585347 -0.28465697 -0.7414124 -0.419101 -0.15743516 0.49811828 -0.0010968914 0.29854044 -0.068356752 0.70721704 0.27461877 -0.91767746 -0.031780213 -0.02756031 -0.1377555 -0.19254239 0.10734169 -0.052176666 0.040335074 0.36088178 -0.37269059 0.09898074 0.15972908 0.43943343 -0.058629323 -0.25811356 0.039422709 0.94306421 -0.15193829 1.0200608 -0.59569705 -0.65458965 -0.35079843 0.68132681 0.21064849 -0.091302291 0.35580182 0.63645554 -0.10524341 -0.26987579 -0.13833728 -0.19124129 0.87936133 0.38846883 -0.08208207 1.0561248 0.61688119
4068 0.55038619 -0.11072621 -0.11579876 -0.38868576 0.15146703 -0.792579 0.30655411 0.0059286733 0.15324157 0.51167059 0.39967403 0.12207183 -0.050123449 -0.57617414 0.58464175 -0.74464184 0.077447318 -0.39608127 -0.31488097 0.23174393 -0.10812113 -0.66228271 0.29974946 -0.29760498 -0.360246 -0.78856844 0.029773315 -0.38788486 -0.29419446 -0.59800094 0.68744886 0.44773608 -0.92193848 -0.0045513748 0.61671609 0.36446342 0.65290487 -0.18844448 -0.36458266 0.29309639 0.16366147 0.82847065 0.018200707 0.50470501 0.2397207 0.53027582 0.60084075 0.13861565 -0.2230486 0.33193743 0.73982406 0.57678884 0.12523822 -0.32638022 -0.79275459 -0.66814548 0.046543304 -0.35077304 0.10095067 0.021036567 0.0063610557 -0.028223034 -0.11370315 -0.0031256941 0.79107565 -0.55038118 -0.672535 -0.26587263 -0.083952449 0.067165986 0.25854397 -0.021873742 0.8306554 -1.1100392 0.65077478 -0.23507756 0.72420686 -0.19417751 0.69518167 -0.37713832 0.91512609 0.029708898 0.29332444 0.21293017 -0.93763655 0.58345795 1.0133455 -0.2659885 -0.060070079 -0.14004953 -0.033766322 -0.41895515 0.065629192 0.57255673 -0.90835559 -0.57204878 -0.42282206 0.053117532 -0.10260328 0.27812883
1668 -0.47698316 -0.42814034 0.15082186 -0.29888985 0.12542881 0.32416493 0.27474126 0.36100635 0.63011903 0.16587739 0.32898784 0.12019732 -0.083281323 0.33743003 0.0017379213 -0.58481973 -0.044398215 0.045455877 0.050196704 -0.51382107 -0.042824633 -0.14484768 0.70829326 0.35803962 0.37654942 -0.2131575 0.052419566 -0.47703904 -0.21682514 0.19900827 0.35534656 -0.073269896 -0.40558851 -0.56923091 -0.46381742 0.6577636 0.2890431 0.38978973 0.49781993 0.36650965 0.061031163 -0.40052268 -0.16148077 0.14997178 0.21694069 0.67037588 1.0733644 0.33368886 -0.51288134 0.15692303 0.054101005 0.28565222 -0.094646387 0.018988119 -0.062507913 -0.58518463 -0.080094881 0.057844404 -0.29609844 0.11936959 -0.17494828 -0.10139076 -0.73760778 -0.14483918 -0.14685227 -0.27252796 -0.24427573 -0.069483668 0.42760625 0.041038144 -0.13139063 -0.15200491 0.11933941 0.25425425 -0.16081633 -0.39924213 0.37782595 -0.37604356 -0.25742126 0.19713512 0.56256026 -0.34692895 -0.36352459 0.46519166 -0.36252144 0.51628131 0.34190232 -0.12103134 -0.2932266 -0.050931279 0.49448419 -0.56834817 -0.48865175 0.23253143 0.10977171 0.40299538 -0.035102233 -0.32631916 0.70484662 -0.068497986
